#pragma once
#include <stddef.h>

#define NUM_LAYERS_CFG 1
#define DIM_FFN_CFG 32
#define K_CFG 16
#define S_CFG 16

static const float conv_weight[1024] = {
  -1.616317481e-01f, 1.974409521e-01f, -5.440959930e-01f, -5.306034088e-01f, -1.434330791e-01f, -2.191190124e-01f, 5.595022440e-01f, 1.150562763e+00f,
  5.526676774e-01f, 1.339419335e-01f, -3.515855074e-01f, -4.760310054e-01f, -2.229106724e-01f, -1.965436786e-01f, -1.374042183e-01f, 3.038710654e-01f,
  3.096808791e-01f, -1.212475076e-01f, -2.980892360e-01f, 5.671492219e-01f, 1.404751241e-01f, -6.257867790e-04f, -1.050061956e-01f, -1.587903500e-01f,
  -2.486620992e-01f, -7.313235104e-02f, 7.023916245e-01f, -6.235531569e-01f, -4.116909504e-01f, 1.070552394e-01f, -3.947577178e-01f, 2.869975269e-01f,
  -1.576890796e-01f, -3.460351527e-01f, -1.974255890e-01f, -2.312959135e-01f, -9.870863706e-02f, 2.375362664e-01f, 1.953721605e-02f, -2.121199071e-01f,
  1.879211515e-01f, 4.687271416e-01f, 1.811566204e-02f, -3.974891305e-01f, -5.446889400e-01f, -6.513218284e-01f, 5.447896123e-01f, 4.574259818e-01f,
  -4.461019039e-01f, -5.965757966e-01f, -1.315031797e-01f, 4.966324270e-01f, 7.841020823e-01f, 3.868619502e-01f, -4.199714586e-02f, -4.595858157e-01f,
  -5.103464127e-01f, -4.037536383e-01f, -3.152371347e-01f, -4.812383056e-01f, -5.490478501e-02f, 1.668312103e-01f, -1.156158298e-01f, 5.784192309e-02f,
  -4.550447464e-01f, -6.809436679e-01f, -6.852893829e-01f, 3.851395845e-01f, 6.654033661e-01f, 5.936908126e-01f, -5.357848480e-02f, -2.932750285e-01f,
  -4.313558042e-01f, 2.974514365e-01f, 5.046582818e-01f, 4.537598789e-01f, 2.554241717e-01f, -5.149420500e-01f, -4.391866028e-01f, -6.416406631e-01f,
  -2.667018175e-01f, 2.713809311e-01f, 4.257687628e-01f, 1.145110875e-01f, -2.063242495e-01f, -4.290520251e-01f, -2.709578574e-01f, 4.883337617e-01f,
  2.478700727e-01f, -1.455807984e-01f, -1.560908705e-01f, 1.948119253e-01f, 4.320982695e-01f, 2.479875684e-01f, -2.693601251e-01f, -4.954930544e-01f,
  -3.279535100e-02f, -2.521690167e-02f, -1.687774807e-01f, 7.401594520e-02f, 4.020403922e-01f, -1.126468880e-03f, -1.103880763e+00f, -7.860589027e-01f,
  -2.442687601e-01f, 1.560586989e-01f, -1.780250818e-01f, -5.556375384e-01f, 1.335743163e-02f, -7.385027595e-03f, 9.287460148e-02f, 9.467509389e-01f,
  -7.535576820e-01f, 3.678898215e-01f, 3.630860150e-01f, -5.534713268e-01f, -3.197388723e-02f, -2.017610073e-01f, -2.234763205e-01f, 5.780632496e-01f,
  -6.700332463e-02f, -4.425579906e-01f, -1.668342948e-01f, -1.909805536e-01f, 2.352003008e-01f, -1.303124428e-01f, -5.007839799e-01f, -4.757170379e-01f,
  -5.974025726e-01f, 9.569598734e-02f, -1.492827088e-01f, -2.394793369e-02f, -2.463134192e-02f, -2.042866498e-01f, 1.063326746e-01f, 3.982228413e-02f,
  -8.403912187e-02f, -3.233958483e-01f, -4.745519161e-01f, 1.380581260e-01f, 5.483214855e-01f, 5.126146674e-01f, 5.843133926e-01f, -2.104649991e-01f,
  -2.406362742e-01f, 4.381921887e-01f, 3.769154549e-01f, -4.347468913e-01f, -5.001728535e-01f, -5.175007582e-01f, -6.125953197e-01f, 3.061362207e-01f,
  3.701077998e-01f, 1.884217560e-02f, -6.811591983e-01f, -2.851425707e-01f, 4.181886613e-01f, 8.342825621e-02f, 7.097308636e-01f, 2.391552925e-01f,
  -4.355950356e-01f, -3.698860407e-01f, -1.547759920e-01f, -4.098947644e-01f, 7.356178761e-02f, 3.355167061e-02f, 7.044566423e-02f, -2.318358421e-01f,
  -1.431895971e+00f, 2.407648601e-02f, 1.114758849e+00f, 5.067607760e-01f, 5.643439293e-01f, -1.686449796e-01f, -4.316683412e-01f, 1.212832183e-01f,
  -3.569261730e-02f, -8.551156521e-02f, 2.054081671e-02f, -6.604941189e-02f, 4.059278667e-01f, 3.693489730e-01f, 1.342928559e-01f, 1.059622407e+00f,
  2.164865881e-01f, -1.204312563e+00f, 4.335137308e-01f, 1.858099103e-01f, 1.526343375e-01f, 1.863750517e-01f, -1.898986846e-01f, 3.842454255e-01f,
  6.536319852e-02f, 4.845893979e-01f, 4.000355024e-03f, 2.366531193e-01f, -4.363355692e-03f, 1.251070499e-01f, 5.056128651e-02f, -2.602367848e-02f,
  -2.461377084e-01f, 3.558048606e-01f, -2.815452963e-02f, -2.235780060e-01f, -1.439153403e-01f, 7.464327384e-03f, -1.651377790e-02f, -4.403426945e-01f,
  7.067108750e-01f, -1.107388735e-01f, 2.104753554e-01f, -3.879503608e-01f, 5.663370341e-02f, 4.084085822e-01f, -7.037665695e-02f, -5.242345333e-01f,
  -3.607973456e-01f, 2.117871195e-01f, -4.911210239e-01f, -9.701368213e-01f, 3.387775421e-01f, 4.781903327e-01f, 1.423053980e+00f, 6.827095747e-01f,
  4.572178051e-02f, -1.417739689e-01f, 3.340997696e-01f, -1.349127293e-01f, -4.359456301e-01f, -4.380021393e-01f, -2.690200806e-01f, 5.937371850e-01f,
  8.640546799e-01f, 3.735083640e-01f, 1.521756500e-01f, 6.220527366e-02f, -1.192727014e-01f, -3.551810384e-01f, -4.310726821e-01f, 5.856036544e-01f,
  2.437780350e-01f, -5.657069683e-01f, -1.418401599e-01f, 3.511418030e-02f, 5.013570786e-01f, 9.021396637e-01f, 7.021330595e-01f, 5.124336481e-01f,
  4.956442714e-01f, 1.288447380e-01f, 4.460373893e-02f, 2.026211843e-02f, -1.517437100e-01f, -8.587177098e-02f, -8.734758496e-01f, -3.367884755e-01f,
  -1.040596515e-01f, 2.250394225e-01f, -4.365440011e-01f, -6.757908314e-02f, 2.059735060e-01f, 4.955637828e-02f, 1.661342233e-01f, -2.974366844e-01f,
  -5.839412808e-01f, -4.977965727e-02f, 1.316093653e-01f, 7.115874290e-01f, 7.436759025e-02f, 3.455196917e-01f, -1.762001514e-01f, -3.644376099e-01f,
  -1.958356053e-01f, 4.156148732e-01f, 1.755108684e-01f, -2.201110572e-01f, -2.298319340e-01f, -1.020137906e+00f, -1.661146730e-01f, 5.693813413e-02f,
  2.371654361e-01f, -4.277696609e-01f, -9.431929588e-01f, -4.862984419e-01f, 3.788477555e-02f, 5.212142467e-01f, 4.011997581e-01f, -1.560497880e-01f,
  3.955668509e-01f, 2.165409774e-01f, -1.680292003e-02f, -1.253688484e-01f, 1.839553416e-01f, 3.200235963e-01f, 2.304328233e-01f, 2.052312046e-01f,
  -1.288248748e-01f, 2.531704307e-01f, 4.205421805e-01f, 2.232842445e-01f, -4.905462563e-01f, -4.642076194e-01f, -6.492164135e-01f, 2.663076520e-01f,
  6.459399462e-01f, -5.833294392e-01f, -3.662711978e-01f, 4.989852309e-01f, 5.718978643e-01f, 2.272990644e-01f, -4.699023366e-01f, -6.070041060e-01f,
  4.810960218e-02f, 5.952071548e-01f, 5.069201589e-01f, 8.150014095e-03f, -6.497334838e-01f, 1.728139520e-01f, -1.676663309e-01f, -1.520539224e-01f,
  -5.683187246e-01f, 2.263787091e-01f, -4.581696689e-01f, -4.179926813e-01f, 1.711404771e-01f, -2.621240318e-01f, 7.798980474e-01f, 7.733295560e-01f,
  -4.278917909e-01f, -8.707686067e-01f, -1.190262556e+00f, -2.194994390e-01f, 1.873653382e-01f, -9.552601725e-02f, -4.677805305e-02f, 2.483779341e-01f,
  6.007399559e-01f, -1.126334891e-01f, 5.235605836e-01f, 5.406409502e-01f, 2.906591296e-01f, -2.966663539e-01f, -8.169441223e-01f, -5.965173841e-01f,
  -6.584275365e-01f, 8.003427982e-01f, 3.804852366e-01f, 7.753058672e-01f, -1.929812580e-01f, 1.742592305e-01f, -1.785014272e-01f, -5.085134134e-02f,
  1.345725060e-01f, -6.804295778e-01f, 7.227496803e-02f, 1.735141575e-01f, 1.512145549e-01f, 7.252799720e-02f, -1.005197540e-01f, -3.303132653e-01f,
  -2.874390483e-01f, -6.207659468e-02f, 3.543381691e-01f, -1.355504841e-01f, 4.189126194e-01f, 7.723546028e-01f, 8.389390111e-01f, -2.246174961e-01f,
  -1.723055094e-01f, 5.405768156e-01f, -3.473475948e-02f, -4.107685387e-01f, -3.806087971e-01f, -3.976805806e-01f, -1.411604434e-01f, -2.068657130e-01f,
  -5.945844054e-01f, 3.749923408e-02f, 4.318575859e-01f, 1.106469035e+00f, 7.391787767e-01f, -4.734156653e-03f, -1.503803581e-02f, -3.655063920e-04f,
  2.463922203e-01f, 4.959681928e-01f, 5.737047195e-01f, 1.577218026e-01f, -1.996390074e-01f, -2.447313517e-01f, -6.145000458e-01f, -2.937570214e-01f,
  3.408544958e-01f, -7.535066009e-01f, 1.700753160e-02f, 4.859421849e-01f, 5.536091700e-02f, -7.294850349e-01f, -1.929575577e-02f, 1.735141128e-01f,
  2.179048210e-01f, 3.189843595e-01f, 6.129768118e-02f, 1.436752677e-01f, 7.556810230e-02f, 2.594093382e-01f, -3.626784310e-02f, -8.736619353e-01f,
  -9.138021469e-01f, -4.261576533e-01f, -9.877854027e-03f, 4.255968034e-01f, 1.144491732e-01f, -8.318511248e-01f, -3.893022239e-01f, 5.967215300e-01f,
  4.949511290e-01f, 3.511515632e-02f, 3.107373118e-01f, 5.305055380e-01f, 2.283916771e-01f, 4.013623670e-02f, 3.420183659e-01f, -2.476920336e-01f,
  -3.186829388e-01f, -1.017100066e-01f, -2.476707101e-01f, -6.375128031e-01f, -5.034944415e-01f, 1.347414963e-02f, 3.572568297e-01f, 3.071924150e-01f,
  1.972325295e-01f, 1.965007484e-01f, -5.890341997e-01f, -2.460568398e-01f, 4.601340592e-01f, 8.560945280e-03f, 4.954851568e-01f, 6.332328320e-01f,
  2.208445072e-01f, 2.274611779e-02f, -3.088983595e-01f, 3.720211685e-01f, 3.465411961e-01f, 7.566704750e-01f, 9.008291960e-01f, -3.459036723e-02f,
  -4.547366500e-01f, -4.501229227e-01f, 7.181581259e-01f, 6.611201167e-01f, 4.414405525e-01f, -5.088508502e-02f, -5.916816592e-01f, -1.085655093e+00f,
  -2.385610789e-01f, 2.295286804e-01f, -2.300033718e-01f, -4.203554690e-01f, -2.682185769e-01f, 2.132659853e-01f, -3.227154016e-01f, -6.030960009e-02f,
  5.878348351e-01f, -3.250025213e-01f, 1.940315068e-01f, 6.179608703e-01f, -6.621045470e-01f, -6.896488369e-02f, 4.142361879e-01f, -1.077977046e-01f,
  3.338546157e-01f, 5.429587364e-01f, 7.051165104e-01f, -8.373566270e-01f, -6.442395449e-01f, -4.578710496e-01f, -4.970314503e-01f, -1.779712141e-01f,
  -2.147290856e-01f, 1.250166893e-01f, -2.060409635e-01f, -8.598097414e-02f, 1.019510627e-01f, 1.322398782e-01f, 2.805704176e-01f, 1.085935354e+00f,
  1.896043569e-01f, -7.050046921e-01f, -7.946915627e-01f, 1.198829189e-01f, -6.404583156e-02f, 1.667547412e-02f, 7.405499220e-01f, 2.597588003e-01f,
  5.443689823e-01f, -2.427819967e-01f, 7.518234849e-01f, 2.751872241e-01f, -5.011495352e-01f, 9.915175848e-03f, -1.143877953e-01f, 7.134839892e-01f,
  6.208793521e-01f, -1.020650625e+00f, -7.958548069e-01f, -4.577199519e-01f, -5.572737381e-02f, 3.598945439e-01f, -2.892273664e-01f, 1.731072366e-01f,
  -1.547319144e-01f, 3.337787390e-01f, -8.981629461e-02f, -1.023238748e-01f, -3.377820179e-02f, -3.376767784e-02f, -1.194226071e-01f, 8.924446106e-01f,
  5.288408995e-01f, 7.719033360e-01f, 4.368982613e-01f, -1.252764761e-01f, 1.073359512e-02f, 2.031733394e-01f, 4.674656689e-01f, -7.580658197e-01f,
  -3.559026420e-01f, 1.516170800e-01f, 1.251833737e-01f, 5.021870136e-01f, 4.129644111e-02f, -4.857411683e-01f, -8.204900026e-01f, 1.342633814e-01f,
  -5.470522046e-01f, -9.931479096e-01f, -4.652665555e-01f, -2.658729553e-01f, -5.575675964e-01f, 1.717925966e-01f, -1.786046475e-01f, -4.877349734e-01f,
  -2.293685973e-01f, 7.941545844e-01f, -3.074704409e-01f, -4.869248867e-01f, 5.237451196e-01f, 2.949573994e-01f, -1.178254336e-01f, 2.912359238e-01f,
  2.580127716e-01f, 3.552269936e-01f, -6.246718168e-01f, 2.259133458e-01f, -2.404040396e-01f, 2.594544291e-01f, 7.308953404e-01f, 8.637061715e-02f,
  -1.231576443e+00f, -5.162133574e-01f, -3.793409467e-02f, -1.660386287e-02f, -1.345301280e-03f, -1.403677464e-01f, 1.535540223e-01f, -2.305255383e-01f,
  6.713359803e-02f, 2.373270690e-01f, 1.455338597e-01f, 7.324426770e-01f, -2.647560537e-01f, 3.258364201e-01f, 2.368091643e-01f, 2.017372102e-01f,
  -1.964252442e-01f, -5.903333053e-02f, 2.742095292e-01f, 3.843182921e-01f, -6.258550882e-01f, -7.733293176e-01f, -4.958731234e-01f, 2.631617486e-01f,
  1.144463718e-01f, -3.156105578e-01f, 3.096269071e-01f, 6.291585565e-01f, 7.239617109e-01f, 4.496611357e-01f, -4.322827160e-01f, -5.981380939e-01f,
  2.848859429e-01f, 9.717811644e-02f, 3.081547320e-01f, 9.074676037e-02f, -6.094226837e-01f, -1.107390076e-01f, -6.906624883e-02f, 1.695974320e-01f,
  2.945567071e-01f, 1.214483529e-01f, -8.434550464e-02f, -1.030991152e-01f, -5.204346776e-02f, -4.821013808e-01f, 1.215435285e-02f, 2.377621680e-01f,
  -1.921997964e-01f, -5.213249922e-01f, -8.461363912e-01f, -5.277534127e-01f, -1.621034443e-01f, -5.154362917e-01f, 1.328824759e-01f, 2.399807274e-01f,
  2.128511816e-01f, 4.997980297e-01f, 4.450067580e-01f, 4.775053263e-01f, 2.386907339e-01f, 2.215693146e-01f, 2.198995799e-01f, -3.494711518e-01f,
  -7.965698093e-02f, -4.705278575e-01f, 4.361490533e-02f, 1.681998819e-01f, -3.806730807e-01f, 4.817122966e-02f, 2.241376191e-01f, 2.584719658e-01f,
  2.522495687e-01f, 3.371262848e-01f, 2.308166772e-01f, -6.173919439e-01f, -4.342306256e-01f, -4.574720860e-01f, 3.172084093e-01f, 9.623390436e-01f,
  -4.260430336e-01f, -5.770429373e-01f, -1.871497482e-01f, 2.070725709e-01f, -4.534809589e-01f, 6.859769225e-01f, -2.619589269e-01f, -8.702063560e-02f,
  -2.172802836e-01f, 2.501623333e-01f, 2.172863930e-01f, -1.527017504e-01f, 1.221877575e+00f, -7.575138211e-01f, 2.834466696e-01f, 5.227145553e-01f,
  2.992363572e-01f, 8.099799752e-01f, -4.078361988e-01f, -5.210362077e-01f, 4.894647598e-01f, -4.374561608e-01f, -7.991152257e-02f, 2.339406610e-01f,
  -1.764364094e-01f, -2.422687262e-01f, -3.653280139e-01f, 2.091163397e-01f, -4.226229787e-01f, -2.849143445e-01f, 5.381366611e-01f, -8.839968592e-02f,
  5.054924488e-01f, 4.582220912e-01f, 1.497020721e-01f, 6.126627326e-02f, 7.693869621e-02f, -1.419072747e-01f, 4.564940035e-01f, 8.572844863e-01f,
  6.235415116e-02f, 2.533235252e-01f, -1.799886227e-01f, -8.412700891e-02f, 3.298002183e-01f, 7.360880375e-01f, 3.866183162e-01f, -3.121707737e-01f,
  3.965752721e-01f, 4.375759065e-01f, -8.983384818e-02f, -7.083303928e-01f, -1.634902656e-01f, 1.683553308e-01f, 6.007821560e-01f, 2.127237469e-01f,
  -6.093830615e-02f, 2.115849202e-04f, 7.924448848e-01f, 5.951713920e-01f, 6.358485669e-02f, -1.465208977e-01f, -4.279415011e-01f, -6.079011559e-01f,
  5.063884258e-01f, -3.305981755e-01f, -2.864068449e-01f, 6.856364012e-01f, 7.263302058e-02f, -3.363125324e-01f, 1.872949600e-01f, 2.639108598e-01f,
  -3.762893677e-01f, -8.152222037e-01f, 2.994479239e-01f, -7.610735297e-02f, -4.042315185e-01f, -2.558616102e-01f, 4.515298903e-01f, -1.344256550e-01f,
  1.162637174e-01f, -5.204836726e-01f, -8.302497268e-01f, -4.666065276e-01f, -3.834486604e-01f, 3.929985762e-01f, 8.620030284e-01f, -8.344762027e-02f,
  -8.516877294e-01f, 5.925781652e-02f, -1.383382082e-01f, -4.852980003e-02f, 2.582345009e-01f, -4.258294404e-01f, -1.305981427e-01f, 4.669353962e-01f,
  5.084979534e-01f, -5.788819790e-01f, 4.929313436e-02f, -1.975906789e-01f, -5.173943639e-01f, -5.235281587e-01f, -1.113117114e-01f, -4.144524336e-01f,
  3.321508169e-01f, 5.938537121e-01f, 4.971692264e-01f, -3.452440202e-01f, -7.358673811e-01f, -1.832675636e-01f, 1.754222065e-01f, -5.829632282e-02f,
  4.404280186e-01f, 1.024101257e+00f, 5.509023666e-01f, 1.019370198e+00f, 2.649577856e-01f, -3.301001787e-01f, -5.069006085e-01f, 3.279123008e-01f,
  6.069432497e-01f, 1.062962651e+00f, 8.777073026e-02f, 6.217291951e-01f, 2.132258564e-01f, -7.396808360e-03f, 1.389485896e-01f, -1.216750685e-02f,
  -9.079088569e-01f, 7.097548991e-02f, 1.869578101e-02f, -1.221699342e-01f, 2.062185556e-01f, -7.970131934e-02f, 7.627104223e-02f, -3.297990654e-03f,
  1.469347119e+00f, 2.509331703e-01f, 6.440977454e-01f, -4.869636595e-01f, -5.027571917e-01f, 2.842061222e-01f, -6.472699642e-01f, -2.814007103e-01f,
  -2.394363880e-01f, -1.987040192e-01f, -4.255684912e-01f, -7.549626231e-01f, -2.003152482e-02f, -1.936117262e-01f, -1.691460162e-01f, -3.666642010e-01f,
  2.964166403e-01f, 3.188480437e-01f, -2.741949856e-01f, 5.943952203e-01f, -2.172626555e-01f, -5.226204991e-01f, -4.312719777e-02f, -3.770137131e-01f,
  2.824264467e-01f, -5.167812109e-01f, 1.071477588e-02f, -6.461818814e-01f, -7.277493924e-02f, 7.217687368e-01f, 6.665666699e-01f, 4.965104461e-01f,
  8.804740906e-01f, -3.587375209e-02f, -5.000391006e-01f, 2.306173928e-02f, 1.173676252e-01f, -1.459018141e-01f, -3.414957523e-01f, -1.914723665e-01f,
  -8.855004795e-03f, 7.875594497e-01f, -3.001345694e-02f, 6.887730211e-02f, -6.775194407e-02f, -1.715264469e-01f, 1.866714716e+00f, -9.528532624e-02f,
  -6.610454321e-01f, -5.307342410e-01f, 2.383186817e-01f, 3.273714706e-02f, 2.420788258e-01f, 2.941713333e-01f, 7.779104263e-02f, 1.733911484e-01f,
  -9.738884866e-02f, -6.584494114e-01f, -4.010767043e-01f, 3.949953318e-01f, 5.410603881e-01f, 2.844375074e-01f, 1.116908789e-01f, -5.779752880e-02f,
  -1.165488586e-01f, -2.304713130e-01f, 1.768455356e-01f, -9.390527755e-02f, -4.393052459e-01f, -5.898002908e-02f, -1.068275645e-01f, 6.590488367e-03f,
  -1.375614945e-02f, -1.317210346e-01f, 1.013075113e-01f, 2.941780984e-01f, -2.317999005e-01f, -2.821551263e-01f, -5.268041790e-02f, -1.117281988e-01f,
  -3.454316556e-01f, -7.021280527e-01f, -2.694233060e-01f, 2.974736691e-02f, 4.063728452e-01f, 8.591333032e-01f, -2.552112192e-02f, -4.271996319e-01f,
  9.933201671e-01f, 2.742436901e-02f, -2.692853212e-01f, -5.998228788e-01f, -5.124793649e-01f, 2.024132609e-01f, 7.971690893e-01f, -3.683612645e-01f,
  -3.746219277e-01f, -3.001298308e-01f, 2.071647048e-01f, 3.387970626e-01f, 3.483462036e-01f, 7.526225448e-01f, 8.543671668e-02f, 3.332518637e-01f,
  -6.457580328e-01f, -3.857688010e-01f, -3.072851896e-01f, -5.172906518e-01f, 8.861563355e-02f, 9.510231614e-01f, -3.600317240e-01f, -9.730856419e-01f,
  2.582540810e-01f, -1.188507825e-01f, -6.560182571e-02f, -1.930954009e-01f, 6.951822042e-01f, 3.406349123e-01f, -6.890386343e-02f, 1.211307719e-01f,
  3.663727269e-02f, 4.041559100e-01f, 6.326966882e-01f, 8.139458299e-02f, 3.034130335e-01f, 1.201092720e+00f, -1.304031610e-01f, -9.645408988e-01f,
  1.320270896e-01f, 2.203868330e-01f, -1.287695527e+00f, 2.535633743e-01f, -8.125156164e-02f, -2.601304650e-01f, 1.595559120e-01f, 2.604720294e-01f,
  -7.183483243e-01f, 6.106675044e-02f, 1.687796116e-01f, 5.567945242e-01f, -2.619642019e-01f, 4.864078164e-01f, -3.264186084e-01f, 4.525632858e-01f,
  2.414214164e-01f, 2.175402790e-01f, 1.971103400e-01f, 7.921682298e-02f, 5.802481994e-02f, -7.239131331e-01f, 1.478459984e-01f, 4.073866010e-01f,
  2.194942832e-01f, -2.160938978e-01f, -2.075878158e-02f, -1.186710782e-02f, -8.802462220e-01f, 2.012029141e-01f, 8.667660952e-01f, 3.409458101e-01f,
  1.068068296e-01f, -1.044446677e-01f, -2.619143426e-01f, -9.631726742e-01f, -1.538185030e-01f, -9.032901376e-02f, -4.366901219e-01f, -3.474646509e-01f,
  -7.563177943e-01f, -4.830071628e-01f, -3.637977242e-01f, -5.275637507e-01f, 7.320423126e-01f, 7.511378527e-01f, 2.326310277e-01f, 1.659626514e-01f,
  -3.890935183e-01f, 8.370484225e-03f, 1.082276460e-02f, -2.096897364e-01f, -5.050259084e-02f, -3.804802001e-01f, 2.482586056e-01f, -3.465828896e-01f,
  -9.245448746e-03f, 7.090663314e-01f, 5.632361770e-01f, -5.564987063e-01f, -6.661797762e-01f, -4.407673478e-01f, 2.993696630e-01f, 5.600059628e-01f,
  1.606085896e-01f, 1.588246971e-01f, -2.161682844e-01f, 1.758048981e-01f, 3.714760542e-01f, 2.139054686e-01f, 8.612074307e-04f, 1.844140738e-01f,
  3.382116854e-01f, 2.732451558e-01f, 2.003391385e-01f, 5.498633534e-02f, 1.727851480e-01f, 1.284966767e-01f, -1.935857534e-01f, -2.604429722e-01f,
  1.890148073e-01f, 2.156697661e-01f, 1.002661213e-01f, -6.330478191e-02f, -6.672573090e-01f, -5.874015093e-01f, -1.566176564e-01f, 3.061312437e-01f,
  -4.403698444e-01f, 2.161707431e-01f, 1.788688600e-01f, -1.993375123e-01f, -7.617576718e-01f, -6.795972586e-01f, -5.785374641e-01f, -1.423449516e-01f,
  -1.125876606e-01f, -8.595995903e-01f, -7.849041224e-01f, -3.663265705e-01f, 5.835626647e-02f, 1.416169256e-01f, 1.989794225e-01f, -3.690462708e-01f,
  -2.031712234e-01f, -4.537656903e-01f, -1.151824296e-01f, -2.329937518e-01f, -1.140395626e-01f, 3.728633514e-03f, 5.313628912e-01f, 7.783614397e-01f,
  3.506006598e-01f, 2.805095911e-01f, -4.514478520e-02f, 1.448691636e-01f, 2.194069475e-01f, -3.463484347e-01f, -3.116773665e-01f, 1.078770012e-01f,
};

static const float conv_bias[32] = {
  6.909387559e-02f, -1.306706369e-01f, -1.309956908e-01f, 6.104308367e-02f, -2.653623521e-01f, -5.901032127e-03f, 3.982463479e-02f, 2.401516773e-02f,
  4.492726177e-02f, -1.835051328e-01f, -1.039678231e-02f, 8.276097476e-02f, -1.917528361e-01f, -1.412127763e-01f, -5.300143734e-02f, 3.500834480e-02f,
  -3.264200687e-02f, 1.649404615e-01f, -1.736969799e-01f, -1.709331423e-01f, 4.216324538e-02f, -9.228468686e-02f, 6.450341642e-02f, -1.930450462e-02f,
  -5.586034805e-02f, 9.368253499e-02f, -1.449762881e-01f, -1.856013946e-02f, 1.334939748e-01f, 1.683054864e-01f, -2.048308849e-01f, -7.346399128e-02f,
};

static const float dt1_alpha[1] = {
  9.699019194e-01f,
};

static const float dt2_alpha[1] = {
  2.276344776e+00f,
};

static const float dt1_weight[1][32] = {
  { 1.026647091e+00f, 1.508730531e+00f, 1.465207458e+00f, 1.176946878e+00f, 1.522852659e+00f, 1.416875482e+00f, 1.207106233e+00f, 1.272507429e+00f, 1.279823899e+00f, 1.512405157e+00f, 1.395967245e+00f, 1.206720233e+00f, 1.879555464e+00f, 1.422151208e+00f, 1.543069839e+00f, 1.330297589e+00f, 1.455277085e+00f, 1.039521337e+00f, 1.393823862e+00f, 1.600554705e+00f, 1.472718000e+00f, 1.297131777e+00f, 1.151072979e+00f, 1.462739587e+00f, 1.831870198e+00f, 1.230708122e+00f, 1.417497039e+00f, 1.580820918e+00f, 1.205619335e+00f, 1.142886400e+00f, 1.531021357e+00f, 1.359657407e+00f },
};

static const float dt1_bias[1][32] = {
  { -1.113798171e-01f, -9.772384167e-02f, -1.420266628e-01f, -1.646094024e-01f, -6.141891330e-02f, -6.783815473e-02f, -1.111930609e-01f, -1.749959141e-01f, -1.901455075e-01f, -1.209730059e-01f, -9.492571652e-02f, -1.951257586e-01f, -9.539137036e-02f, -1.303149164e-01f, -1.098866910e-01f, -8.677446842e-02f, -9.728377312e-02f, -1.743537188e-01f, -8.668090403e-02f, -1.168838665e-01f, -1.072027162e-01f, -1.143171042e-01f, -1.183486506e-01f, -7.405228168e-02f, -6.208628044e-02f, -1.633641124e-01f, -9.387237579e-02f, -8.327795565e-02f, -1.723375916e-01f, -1.676058769e-01f, -1.014641821e-01f, -1.300850362e-01f },
};

static const float dt2_weight[1][32] = {
  { 1.509825826e+00f, 1.286894202e+00f, 1.423174381e+00f, 1.085017443e+00f, 1.525404453e+00f, 1.686739802e+00f, 1.502059698e+00f, 1.671477675e+00f, 1.705930948e+00f, 1.175649643e+00f, 1.199436426e+00f, 1.780713916e+00f, 1.279520392e+00f, 1.472692490e+00f, 1.244188190e+00f, 1.323121071e+00f, 1.302219272e+00f, 1.209994674e+00f, 1.318798900e+00f, 1.551593304e+00f, 1.305081248e+00f, 1.804038286e+00f, 1.808917999e+00f, 1.628845811e+00f, 1.733848095e+00f, 1.385505915e+00f, 1.837265253e+00f, 1.246037722e+00f, 1.283367395e+00f, 1.738428712e+00f, 1.833878636e+00f, 1.243491888e+00f },
};

static const float dt2_bias[1][32] = {
  { -2.042877376e-01f, 2.545222044e-01f, 3.467717171e-01f, -1.343049705e-01f, -2.696918249e-01f, 3.136669844e-02f, 8.913312107e-03f, -6.419273466e-02f, -2.565845847e-01f, -5.283959508e-01f, -2.631785572e-01f, 1.164809540e-01f, 4.527975246e-02f, 6.971534342e-02f, 1.248034954e+00f, -8.326470107e-02f, 3.518598378e-01f, -7.141804695e-02f, -3.049136400e-01f, -6.342931837e-02f, -7.588632405e-02f, 3.803227544e-01f, -2.599931695e-02f, 1.818857193e-01f, -2.578720152e-01f, -2.830936909e-01f, -7.618455887e-01f, -1.290381849e-01f, 1.563620567e-01f, 2.761022449e-01f, 3.946765363e-01f, -3.512297198e-02f },
};

static const float qkv_weight[1][3072] = {
  { 9.802552462e-01f, -3.986078203e-01f, 6.366589069e-01f, -5.938535333e-01f, 1.873246878e-01f, 1.316899806e-01f, -5.932281017e-01f, -4.038817585e-01f, -1.811002493e-01f, -8.451253176e-02f, -1.895839274e-01f, -9.702098966e-01f, -2.093295157e-01f, 3.475858364e-03f, -2.726245821e-01f, -2.103538811e-02f, -4.246942401e-01f, 1.505355984e-01f, 5.470942333e-02f, 7.636885643e-01f, 3.081501834e-02f, -1.736105084e-01f, -2.972839400e-02f, 1.168511957e-01f, -6.642323136e-01f, 3.229413927e-01f, 4.505314529e-01f, -1.098463535e-01f, -2.950813435e-02f, 4.412184656e-02f, 5.570282415e-02f, -1.308767349e-01f, 2.405879200e-01f, 9.957496077e-02f, 1.767747849e-01f, 5.980452895e-02f, -7.220270038e-01f, -1.878620498e-02f, -5.518360808e-02f, -8.236862719e-02f, -3.028122485e-01f, 9.018659592e-02f, -2.046553791e-02f, -9.674042463e-02f, -2.366190106e-01f, -4.615662098e-01f, -2.201827243e-02f, -1.768435985e-01f, -1.498772055e-01f, -4.829503894e-01f, 3.454340100e-01f, 1.293771714e-01f, -8.413933963e-02f, 3.975819051e-02f, 6.724976748e-02f, -1.762857288e-01f, 3.126414120e-01f, 2.413768321e-01f, 3.522467315e-01f, 1.420968305e-02f, 2.198922336e-01f, 4.800253212e-01f, -1.047251672e-01f, 6.633200049e-01f, 2.800697647e-02f, -1.112730149e-02f, 1.498941183e-01f, 2.369193882e-01f, 8.160465211e-02f, -1.267403550e-02f, 5.108474195e-02f, 7.570941746e-02f, -3.184926510e-01f, -4.254243076e-01f, 7.220389247e-01f, -4.458384812e-01f, -3.091262281e-01f, 2.309507728e-01f, -2.539359331e-01f, -3.083912730e-01f, -6.850636005e-01f, 4.047765434e-01f, 4.294512570e-01f, -3.032445312e-01f, -2.699059844e-01f, -1.885974258e-01f, 1.853021085e-01f, 3.631713092e-01f, -1.692467779e-01f, -5.275833011e-01f, 1.935016066e-01f, 3.298765048e-02f, -8.640178293e-02f, 2.156519741e-01f, -2.923169360e-02f, 6.389577985e-01f, 8.608999252e-01f, -4.942926466e-01f, 1.615921557e-01f, 6.923261285e-02f, 2.425487041e-01f, -1.167765632e-01f, -9.857912064e-01f, -6.845625043e-01f, -5.893326998e-01f, -8.790188432e-01f, 2.153370976e-01f, -5.663161874e-01f, -1.168277115e-01f, 1.435940862e-01f, 2.659368142e-02f, -1.926873624e-01f, 5.520541668e-01f, 1.200553417e+00f, 2.191631943e-01f, -4.598998427e-01f, 7.680971622e-01f, 7.120909095e-01f, -3.826796412e-01f, 1.032170951e-01f, -2.615043335e-02f, -4.799321890e-01f, -3.632225692e-01f, -2.484693080e-01f, -6.240575314e-01f, 7.243211269e-01f, 1.147105992e-01f, 1.206211597e-01f, -3.286896348e-01f, 2.508642375e-01f, 7.149427533e-01f, 2.070198506e-01f, -7.287713289e-01f, -1.789484639e-03f, -2.101902962e-01f, -4.895978272e-01f, 5.478291512e-01f, 4.115537107e-01f, -7.378299832e-01f, -3.794046491e-02f, -6.302019358e-01f, -1.562018879e-02f, 3.869315386e-01f, 4.589584768e-01f, -5.365934372e-01f, -5.713409781e-01f, 6.430988908e-01f, -8.810092807e-01f, 6.029134393e-01f, -3.462536931e-01f, -9.725154936e-02f, -4.033611119e-01f, 1.242266074e-01f, 5.469252355e-03f, 6.364413351e-02f, -1.047682315e-01f, 7.200180888e-01f, -4.736278206e-03f, -3.399034142e-01f, 8.776280284e-02f, 3.446529508e-01f, 1.759618968e-01f, -6.154081598e-02f, 5.276197791e-01f, 8.770602196e-02f, -1.349125057e-01f, 3.475504518e-01f, -4.910092056e-01f, -9.570197761e-02f, -3.095331192e-01f, 8.703415990e-01f, -5.838081837e-01f, -2.129390687e-01f, 1.519842297e-01f, -2.648162246e-01f, 4.745256156e-02f, -8.381118998e-03f, 6.231611371e-01f, 1.535769254e-01f, -7.633067369e-01f, -3.581773937e-01f, -2.216200382e-01f, 1.039875820e-01f, 2.274680585e-01f, 7.588038445e-01f, -1.319006801e+00f, 7.521518469e-01f, 5.175883770e-01f, 1.889203787e-01f, -4.887601733e-01f, 4.632361606e-02f, 4.847217500e-01f, 9.206479788e-02f, -6.246113777e-01f, -3.617275059e-01f, 2.512595654e-01f, 5.370467529e-02f, 4.874446988e-01f, 8.342813253e-01f, -4.211436212e-02f, 3.997353911e-01f, 5.336984396e-01f, -1.323936284e-01f, 8.006749749e-01f, 9.509509429e-03f, -3.894146085e-01f, -3.032600880e-01f, -7.771704346e-02f, -2.728534341e-01f, 2.774998248e-01f, -4.687097371e-01f, -4.520177245e-01f, -4.569467008e-01f, 1.683879942e-01f, -6.913213134e-01f, 4.655407667e-01f, 2.673912644e-01f, -1.095802486e-01f, -6.871578693e-01f, 6.199857593e-01f, 4.871928394e-01f, -3.008640371e-02f, -1.580662280e-01f, -2.348456085e-01f, 2.680322900e-02f, 5.186337233e-01f, 4.810976982e-01f, -2.245789915e-01f, -6.962195504e-03f, -6.297001988e-02f, 5.160763860e-01f, 2.493805438e-01f, 1.996380836e-01f, 1.029927209e-01f, 2.079208046e-01f, -1.756264418e-01f, -7.824426144e-02f, -5.733627081e-01f, -1.754161417e-01f, 5.746288896e-01f, -1.210779309e+00f, 3.736240268e-01f, -5.708518624e-01f, 8.016324043e-01f, 3.832133710e-01f, -7.933877110e-01f, -2.477543801e-01f, -5.384064913e-01f, -5.992359295e-02f, 1.266958475e+00f, 4.594704211e-01f, -5.805523396e-01f, 1.557943784e-02f, 1.766393334e-01f, -4.462067187e-01f, 2.103646994e-01f, -4.848351777e-01f, -4.562877715e-01f, -2.445323765e-01f, 1.306908876e-01f, -6.022129953e-02f, -2.443763912e-01f, 3.138423860e-01f, 3.380818367e-01f, -4.059524834e-01f, -8.211104572e-02f, -1.699658036e-01f, -2.339842021e-01f, -2.874549329e-01f, -2.771179378e-01f, -2.449502200e-01f, -7.645557821e-02f, 7.182794213e-01f, -5.264220834e-01f, 3.289907873e-01f, -9.169171751e-02f, -2.477481663e-01f, -3.609323204e-01f, 4.058032930e-01f, -1.909244210e-01f, -1.960747242e-01f, -1.494510099e-02f, -1.747043990e-02f, 1.553862840e-01f, 5.199619532e-01f, -2.264895141e-01f, -8.010034561e-01f, 1.685006171e-01f, -2.483205795e-01f, 1.093698442e-01f, 4.082548618e-01f, -1.296022385e-01f, -2.818909474e-02f, 2.736113369e-01f, 1.088652492e+00f, 6.959868073e-01f, 6.102274060e-01f, -4.899993241e-01f, 3.325191438e-01f, -3.341445923e-01f, -3.330500424e-01f, 9.084396064e-02f, 4.166736603e-01f, 2.540140748e-01f, -6.888079047e-01f, 3.802438080e-01f, 2.327764481e-01f, 4.830020070e-01f, -9.315182269e-02f, -5.706786737e-02f, -1.133761480e-01f, 2.678566277e-01f, 6.971783638e-01f, -2.308292538e-01f, 4.903557003e-01f, 2.760492861e-01f, -3.335658908e-01f, -4.016532004e-02f, -2.356308848e-01f, 1.552956253e-01f, 2.541803718e-01f, 1.752516478e-01f, -5.651725531e-01f, 2.224161327e-01f, -7.932261229e-01f, 4.596727788e-01f, 5.685823560e-01f, 3.112848103e-01f, 5.863035098e-02f, -2.291922830e-02f, -1.615452468e-01f, -8.102767169e-03f, 1.040802151e-01f, 4.764932692e-01f, -7.698437572e-01f, 1.158455163e-01f, 1.871085018e-01f, -1.394348741e-01f, 1.918696612e-01f, -1.996997893e-01f, 3.770328164e-01f, -1.404876728e-02f, -1.300432086e-01f, 2.589163184e-01f, -1.917362362e-01f, -2.241281122e-01f, -3.502749503e-01f, -6.864176393e-01f, 4.596953988e-01f, 7.446191460e-02f, 1.346620470e-01f, 3.178577721e-01f, 5.983914137e-01f, -1.018824130e-01f, -3.862611353e-01f, -6.595039368e-01f, 7.434239984e-02f, -1.601945609e-01f, 1.542661637e-01f, -1.450887471e-01f, -1.379872561e-01f, -1.719832718e-01f, -4.255717099e-01f, 8.228357136e-02f, -2.773105800e-01f, -1.004115120e-01f, -2.567874491e-01f, -3.038541079e-01f, -3.272610009e-01f, -2.226042151e-01f, -3.928334713e-01f, -1.218402982e-01f, 3.961436749e-01f, 1.331561804e-01f, -5.878387690e-01f, 2.923994958e-01f, 5.317749977e-01f, -6.130132675e-01f, 1.421152353e-01f, 4.321140051e-01f, 5.089979768e-01f, -3.332927451e-02f, -6.670435071e-01f, 5.861157179e-01f, -8.207880259e-01f, 2.316347808e-01f, 3.042845726e-01f, -2.680501044e-01f, 2.350000851e-02f, 4.711416364e-01f, -3.806811869e-01f, 1.342608035e-01f, -5.472800136e-01f, 2.109331787e-01f, 2.689527534e-02f, -2.662726045e-01f, -2.323266715e-01f, -2.054342180e-01f, -6.927554011e-01f, -1.567431539e-01f, 7.422821522e-01f, 3.063465059e-01f, 9.033502638e-02f, -5.679083467e-01f, -7.252047658e-01f, 5.892059803e-01f, 1.000862047e-01f, 6.430910826e-01f, -7.373777628e-01f, -1.940642148e-01f, 1.141857982e+00f, 8.953882456e-01f, -1.137673616e+00f, 3.320280612e-01f, 1.009350121e-01f, -3.228669763e-01f, 2.321453840e-01f, 5.135731399e-02f, -5.910221934e-01f, -1.945559680e-01f, 2.222425193e-01f, 3.375978172e-01f, -2.402780503e-01f, -3.311880827e-01f, -3.682794273e-01f, 2.223329246e-01f, -2.501466274e-01f, -1.121234655e+00f, -4.296967983e-01f, -2.874904275e-01f, -5.710972548e-01f, 6.051332951e-01f, -2.468852326e-02f, 7.761155814e-02f, -2.986935079e-01f, 4.750949740e-01f, -7.720973343e-02f, 1.300633252e-01f, 4.240993261e-01f, 1.844595820e-01f, 7.309558988e-02f, 6.493242085e-02f, -4.813839793e-01f, -2.336097062e-01f, 2.758621871e-01f, 7.719666511e-02f, -4.136954546e-01f, -1.879938096e-01f, -2.994031310e-01f, -6.323469281e-01f, 6.579515338e-01f, 2.442018986e-01f, -3.836668730e-01f, -6.092959046e-01f, 4.634433091e-01f, 3.836926818e-01f, -6.676392555e-01f, 6.343007088e-01f, -5.279076472e-02f, 2.511363328e-01f, -2.370311022e-01f, -7.273204923e-01f, 3.280893564e-01f, -2.688471600e-02f, 9.849543869e-02f, 4.599303380e-02f, 7.839356363e-02f, -2.181161940e-01f, 1.534561962e-01f, -9.918475896e-02f, -4.277758300e-01f, 4.751137793e-01f, 2.033936232e-01f, 7.089209557e-01f, 1.766497642e-01f, -8.349942565e-01f, 6.902101636e-01f, 2.581684850e-02f, -7.258331180e-01f, 9.241180420e-01f, 4.217494726e-01f, 9.792178124e-02f, 3.893538117e-01f, 1.776976436e-01f, -1.383710951e-01f, -1.345855147e-01f, -5.656623095e-02f, -1.453956217e-01f, -1.355916858e-01f, 4.251349866e-01f, -2.179437578e-01f, 2.033068836e-01f, 3.639905155e-01f, -6.272596121e-01f, -3.069740832e-01f, -5.895785689e-01f, 3.948985785e-02f, 1.042308569e+00f, -2.231242955e-01f, -6.691110730e-01f, 2.642233074e-01f, 5.709497333e-01f, 3.776673600e-02f, 5.172484517e-01f, 9.638249129e-02f, 5.034229755e-01f, 2.711891755e-02f, 3.711515665e-01f, -4.281798303e-01f, 1.995419860e-01f, 1.677217931e-01f, -2.125439495e-01f, 3.298395872e-01f, -2.642731965e-01f, 6.731288880e-02f, -4.007605612e-01f, 5.011710897e-02f, 1.353168786e-01f, 2.200969867e-02f, -1.886680722e-01f, -2.673898339e-01f, 7.096949220e-01f, 7.391672581e-02f, -2.326368093e-01f, 1.453719288e-01f, -3.241747320e-01f, 1.820220798e-01f, -7.092985511e-02f, 2.853001952e-01f, -2.400224656e-01f, -6.592159271e-01f, 7.512724400e-01f, -1.421292722e-01f, 3.518669009e-01f, -3.076179028e-01f, -3.527829051e-01f, 1.366638839e-01f, 5.013273954e-01f, 7.366664708e-03f, 1.430865228e-01f, 4.801245928e-01f, 2.694097161e-01f, 1.323804408e-01f, -4.151595235e-01f, -1.223262623e-01f, 5.850945413e-02f, -2.133201808e-02f, -1.834517717e-01f, 3.207491040e-01f, -2.529374361e-01f, 2.484541237e-01f, 5.215874314e-01f, -6.296824217e-01f, -3.023721874e-01f, -6.372992694e-02f, -4.410196245e-01f, -2.274500020e-02f, -2.062105089e-01f, -6.341071725e-01f, 5.001277849e-02f, 3.782654405e-01f, 5.498478413e-01f, 6.074761748e-01f, -1.086155772e-01f, 1.007738784e-01f, -5.822660774e-02f, -1.944381297e-01f, 1.239285693e-01f, -5.666162372e-01f, -5.372601748e-01f, 2.202177793e-01f, -4.755307734e-01f, 9.908437133e-01f, -9.789488465e-02f, -7.952458262e-01f, 2.869573236e-01f, 2.065395117e-01f, -3.695245683e-01f, -3.373242319e-01f, 4.319369197e-01f, 7.490442693e-02f, -2.310586423e-01f, -2.057105303e-02f, 4.930099472e-02f, 3.645738661e-01f, -1.486761272e-01f, 1.568744928e-01f, -3.546467423e-01f, -5.681249872e-02f, 1.036821008e-01f, -4.907303751e-01f, 5.263001919e-01f, -6.473594159e-02f, 3.495348394e-01f, -3.593491912e-01f, -4.396888316e-01f, 3.802764416e-02f, 6.358490139e-02f, 8.986456692e-02f, 3.196688592e-01f, -2.575310767e-01f, 1.042766348e-01f, -2.820102572e-01f, 2.908120155e-01f, -3.286462724e-01f, -3.289993107e-01f, 1.297533978e-02f, -1.827930361e-01f, -5.068422556e-01f, -2.033889741e-01f, 1.028289914e+00f, 1.047818899e+00f, -1.008429527e-01f, 6.579840183e-01f, 1.404680908e-01f, 2.391892374e-01f, -2.931510806e-01f, -1.158021092e-01f, -2.192695439e-01f, -5.910094976e-01f, 6.157721877e-01f, -3.553303182e-01f, -5.515579879e-02f, 5.744318664e-02f, -2.807200328e-02f, -1.989265680e-01f, 4.828286469e-01f, 1.903039217e-01f, -2.250229008e-02f, 2.382378280e-01f, 5.080696940e-01f, -3.492407501e-01f, -2.441955358e-01f, 7.497921586e-02f, 5.413113628e-03f, 3.270164132e-01f, 5.655087531e-02f, 3.011181951e-01f, -6.452704668e-01f, -2.776373327e-01f, 5.554873943e-01f, -9.562582374e-01f, 9.117466211e-01f, 3.804003820e-02f, 1.208362132e-01f, -1.196601838e-01f, 5.695021525e-02f, 8.708008528e-01f, 3.130372465e-01f, 4.212042093e-01f, -3.782185540e-02f, 3.928343654e-01f, -2.181177437e-01f, 2.220710516e-01f, -5.035875440e-01f, -1.239773002e-03f, -3.385703862e-01f, -4.139114320e-01f, 2.424748242e-01f, -8.725006878e-02f, 2.726480067e-01f, 2.077801228e-01f, 1.053548306e-01f, 6.399280429e-01f, 8.942043185e-01f, -5.873112082e-01f, -3.546706736e-01f, -1.252671629e-01f, -4.026281238e-01f, -3.333581686e-01f, -7.486263514e-01f, 4.368510246e-01f, 6.035930514e-01f, 4.803741574e-01f, -3.346417248e-01f, 7.358643413e-01f, 2.413705736e-01f, 2.015826404e-01f, -1.392870694e-01f, -3.922960162e-01f, 4.411109388e-01f, 3.983195424e-01f, -6.360091567e-01f, -4.769246578e-01f, 1.307222545e-01f, 4.813400656e-02f, -4.085922241e-01f, 2.504380643e-01f, 4.421799183e-01f, 6.036324501e-01f, -3.195462823e-01f, -8.571150899e-02f, -5.911101103e-01f, 5.554150417e-02f, 8.780819178e-02f, -1.834767610e-01f, -6.155503392e-01f, 2.316154540e-01f, -4.420308173e-01f, -4.479395747e-01f, 2.075179368e-01f, -2.647095919e-01f, -3.194227219e-01f, -4.056091309e-01f, 5.793983936e-01f, 2.160335630e-01f, 1.493142247e-01f, 5.167276859e-01f, -1.037202626e-01f, 1.123536378e-01f, -4.367867708e-01f, -1.799859107e-01f, 1.909560114e-01f, -1.379370838e-01f, -1.618836373e-01f, -3.819603845e-02f, -6.925451756e-01f, -3.280029893e-01f, 2.009832859e-01f, 1.521660089e-01f, -1.811428815e-01f, -5.473822355e-01f, -1.317015477e-02f, -1.810470596e-02f, -1.715520024e-01f, -6.672644615e-02f, 4.936624467e-01f, -1.023728698e-01f, 2.421853691e-01f, 7.657260299e-01f, 4.695090950e-01f, 5.511164665e-01f, 1.810968667e-01f, 3.207954466e-01f, 3.270069836e-03f, 6.346059591e-02f, 3.559089601e-01f, -6.918266416e-01f, -1.118903458e-01f, 2.688012123e-01f, 6.981005669e-01f, 4.975745976e-01f, -2.138751447e-01f, 1.677714847e-02f, -7.089396007e-03f, 3.007297814e-01f, 7.418360710e-01f, -6.154883504e-01f, -2.206045538e-01f, 2.703374922e-01f, -9.537383914e-02f, -2.021371387e-02f, -8.819867969e-01f, -2.717449330e-02f, 2.222225070e-01f, 6.027733907e-02f, -1.520253420e-01f, 2.498778254e-01f, -1.362448484e-01f, 4.121988416e-01f, 2.037073523e-01f, 8.512368798e-02f, -8.319016546e-02f, 1.600261927e-01f, -1.776776761e-01f, -3.744474351e-01f, -5.688987374e-01f, 4.568226337e-01f, -7.489682436e-01f, 2.355602980e-01f, 3.224178255e-01f, -3.744526803e-01f, 4.105052054e-01f, 2.809061110e-01f, 6.665456295e-01f, 5.119776353e-02f, -7.901882380e-02f, 1.143508926e-01f, 5.119720697e-01f, 5.227593780e-01f, -5.117802322e-02f, 9.765133858e-01f, -7.963650823e-01f, 5.526806116e-01f, 5.974591374e-01f, -2.292993516e-01f, 3.395086229e-01f, 1.177527606e-01f, -2.390609980e-01f, 2.713684738e-01f, 1.647227556e-01f, -2.752089798e-01f, -8.978648186e-01f, -2.949196696e-01f, 1.412549708e-02f, -5.289183259e-01f, 2.107150555e-01f, 2.041440457e-01f, 1.235988587e-01f, 3.664260209e-01f, -6.445626915e-02f, -1.189404633e-03f, -1.100586876e-01f, -6.248706579e-01f, 1.906278427e-03f, 4.320161045e-01f, 1.681137532e-01f, 1.930192229e-03f, 3.974783421e-01f, 2.596587837e-01f, 9.271702170e-02f, -9.530974925e-02f, -2.199415565e-01f, -3.578656912e-01f, -4.011442959e-01f, 1.525364667e-01f, 5.113561153e-01f, -8.494309187e-01f, -5.195577815e-02f, 4.135357738e-01f, 1.294662207e-01f, -2.822157443e-01f, -8.886327595e-02f, -5.397201777e-01f, -1.536637824e-02f, 9.372523427e-02f, 1.192593500e-01f, -3.379581124e-02f, -6.001522020e-02f, 2.489836663e-01f, 1.489050984e-01f, 6.974848509e-01f, -6.031519771e-01f, -8.533894271e-02f, 1.793146506e-02f, 3.689752147e-02f, 8.793919533e-02f, 3.666145261e-03f, 1.662506312e-01f, -1.360746026e-01f, -9.048955441e-01f, 5.559108257e-01f, -1.586782187e-01f, 4.794017076e-01f, 5.347027630e-02f, -4.835281670e-01f, -2.442924827e-01f, 2.257223278e-01f, -3.268496692e-01f, 2.236371189e-01f, -9.495701194e-01f, 7.683918476e-01f, -1.340229958e-01f, 4.643008485e-02f, -3.584636152e-01f, 5.600340366e-01f, 5.636541247e-01f, -6.961272359e-01f, -1.737767160e-01f, -1.645163745e-01f, -3.376638517e-02f, -2.732783556e-01f, 8.525073528e-03f, 6.088342071e-01f, 4.731157720e-01f, -4.342610538e-01f, -1.402821951e-02f, 2.362360954e-01f, 3.405585289e-01f, 2.225866467e-01f, -1.401525855e+00f, -8.202480525e-02f, 7.789423317e-02f, -8.160639554e-02f, 1.222394779e-01f, 4.328330755e-01f, -5.460265875e-01f, -5.254240036e-01f, -3.483781219e-01f, 2.106475681e-01f, -3.466506600e-01f, 1.180943772e-01f, -3.003114164e-01f, 4.419272542e-01f, -3.337262869e-01f, 5.381678343e-01f, -3.729770482e-01f, 3.980587125e-01f, 9.616476297e-02f, 2.075185254e-02f, -4.293652475e-01f, 2.883202434e-01f, -6.632943153e-01f, 5.542568117e-02f, -3.745643497e-01f, -2.903026640e-01f, 5.890597105e-01f, -2.158329487e-01f, -5.569214821e-01f, 1.775894612e-01f, 4.386775792e-01f, 4.974504113e-01f, 1.229259595e-01f, 7.892014384e-01f, 4.521168470e-01f, 8.210018277e-01f, -6.061000228e-01f, 1.072687376e-02f, -4.208481610e-01f, -3.736636937e-01f, -2.732356638e-02f, 6.879864633e-02f, -9.037197828e-01f, -2.126191854e-01f, 7.551800013e-01f, -7.694668770e-01f, 5.557187200e-01f, -6.861342192e-01f, -4.229952395e-01f, 2.704972774e-02f, 2.535071373e-01f, -8.254522681e-01f, -1.309064627e-01f, 2.123647183e-02f, 6.672298312e-01f, 3.237279505e-02f, -8.105215430e-01f, 3.783602417e-01f, -6.841993928e-01f, 2.393138409e-01f, 9.060288966e-02f, -2.236210555e-01f, 2.196671665e-01f, 4.649858549e-02f, 7.746365666e-01f, -7.630361915e-01f, -6.196434796e-02f, -7.279126346e-02f, 1.690641046e-01f, -2.812956572e-01f, 5.397798419e-01f, -3.613820672e-01f, -4.365449548e-01f, 4.796069860e-01f, 1.591670066e-01f, -3.130488098e-02f, 4.572027549e-02f, 5.772919059e-01f, -4.762848914e-01f, 1.574170589e-01f, 2.138093561e-01f, 1.875729412e-01f, 4.101497233e-01f, -1.548424602e+00f, -7.287047505e-01f, 5.660426021e-01f, 2.643531561e-01f, -3.644908667e-01f, -8.246183991e-01f, 1.199706316e+00f, 4.253369272e-01f, 1.271253824e-01f, -4.726067781e-01f, -1.873254478e-01f, -2.383492514e-02f, -1.335260570e-01f, 7.159613967e-01f, 1.615771651e-01f, 4.732296988e-02f, -2.187593877e-01f, -2.303898335e-01f, 3.101750650e-02f, -7.040735800e-03f, -1.174507546e-03f, -1.442978621e+00f, -2.392927110e-01f, 1.128794029e-01f, -2.052364200e-01f, -1.534298062e-01f, -4.966266453e-01f, 2.115438282e-01f, 2.571898103e-01f, -4.378074408e-01f, -2.068634629e-01f, 3.016297221e-01f, -9.006402642e-02f, 1.084660292e-01f, -4.977159500e-01f, 4.811150134e-01f, 6.617025286e-02f, 3.696394712e-02f, 8.943628520e-03f, 7.385335565e-01f, 3.514172137e-01f, 5.641632676e-01f, 1.459140480e-01f, -9.635766745e-01f, 3.537456691e-01f, 4.222937524e-01f, -8.702214360e-01f, 1.522082388e-01f, 4.908907115e-01f, 3.392177820e-01f, -1.462515146e-01f, 5.320551395e-01f, -1.833449900e-01f, 2.558001280e-01f, -8.106406033e-02f, 6.959721446e-01f, 2.742490768e-01f, -2.146430910e-01f, 3.652715981e-01f, -3.777412474e-01f, 1.111744344e-01f, -2.434483916e-01f, -2.097150236e-01f, 1.190112159e-01f, 3.816372454e-01f, 1.764068455e-01f, -1.064740270e-01f, 5.810942873e-02f, 5.259865522e-02f, 2.705217339e-02f, 8.187491298e-01f, -6.765566468e-01f, -4.153677821e-01f, -9.667320177e-03f, 5.653908253e-01f, 6.221407652e-01f, -2.099817246e-01f, -6.102476716e-01f, -2.040246427e-01f, -4.556867480e-01f, 2.125487328e-01f, 2.356917709e-01f, -4.845214486e-01f, 1.173684001e-01f, 3.598853052e-01f, -2.187291086e-01f, 2.208699137e-01f, 2.544427514e-01f, -1.667775810e-01f, 8.559673429e-01f, 4.736164212e-01f, 2.005815506e-01f, 4.249987900e-01f, -5.006988645e-01f, 7.757894993e-01f, -8.521758318e-01f, 3.234682381e-01f, -2.950661480e-01f, -9.512095898e-02f, 6.464630365e-01f, -2.894437313e-01f, -1.091871262e+00f, 4.739794135e-01f, -7.894424796e-01f, 4.579196274e-01f, -3.372800350e-02f, 1.759481728e-01f, -2.149021775e-01f, 4.394775033e-01f, 7.336289287e-01f, -7.865787297e-02f, -4.027077854e-01f, 3.767018616e-01f, -1.747553647e-01f, 6.671698689e-01f, 1.256120652e-01f, -1.661058813e-01f, -4.916027486e-01f, -4.619241357e-01f, 1.488551199e-01f, 5.071008578e-02f, 1.530695409e-01f, 3.249224126e-01f, -1.673427820e-01f, 1.523627937e-01f, 4.173566774e-02f, 3.708255291e-02f, -8.783668876e-01f, -3.709584475e-02f, 1.461509913e-01f, -4.481778443e-01f, 3.603952229e-01f, -3.781702220e-01f, -3.864238784e-02f, 2.386015058e-01f, -6.054111719e-01f, -6.279174685e-01f, -5.819405317e-01f, -1.091431975e-01f, -6.095153689e-01f, 7.399000525e-01f, 2.767780423e-01f, 1.630707532e-01f, 1.926639080e-01f, 5.033175945e-01f, 1.457095146e-01f, -1.465651840e-01f, -1.383589059e-01f, 1.489382354e-03f, -1.941199414e-02f, 8.292856812e-02f, -4.700234234e-01f, -5.667282939e-01f, -2.851029932e-01f, 3.083339334e-01f, -1.313324422e-01f, -4.679929316e-01f, 3.940815628e-01f, -6.742420048e-02f, 1.529845744e-01f, 3.802134395e-01f, -3.128973246e-01f, -5.307981744e-02f, 1.347998977e-01f, 6.702902317e-01f, -6.485002041e-01f, 3.338336349e-01f, -6.445887685e-01f, 4.954968393e-02f, 2.288789004e-01f, 1.313665658e-01f, 4.114097357e-01f, -4.569078386e-01f, 7.440876961e-01f, 4.243380129e-01f, -4.064748585e-01f, -3.682037592e-01f, 3.772909045e-01f, -7.008048892e-02f, -1.775460541e-01f, -3.678191304e-01f, 3.547222912e-01f, -1.344884932e-01f, -8.485193253e-01f, -2.313355356e-01f, -2.419186532e-01f, -7.372840643e-01f, 1.257511526e-01f, -7.166844010e-01f, -4.688366950e-01f, 5.212883353e-01f, 2.322139293e-01f, 1.561817527e-01f, -3.325684695e-03f, -4.887745380e-01f, 2.627973855e-01f, 5.274369121e-01f, -6.332116723e-01f, 1.164037943e+00f, -8.519527316e-02f, 6.525642872e-01f, 4.502996206e-01f, -9.347850829e-02f, 6.956473589e-01f, 3.454118967e-01f, -2.081551850e-01f, -3.993458152e-01f, 1.917733550e-01f, -2.355475426e-01f, 3.843793273e-02f, -3.407570422e-01f, 2.637110837e-02f, 5.912590027e-01f, -5.793170929e-01f, 1.306707263e-01f, 7.021369934e-01f, 4.096895754e-01f, -6.747340411e-02f, -2.878870070e-01f, 1.462593377e-01f, -1.175095066e-01f, -2.929854393e-02f, -6.169988513e-01f, 1.014450788e-01f, 1.911791116e-01f, 2.850331962e-01f, -9.888400324e-03f, -8.120279312e-01f, -1.472660601e-01f, 5.721561983e-02f, 5.919234827e-03f, 2.397044897e-01f, 6.864588857e-01f, -1.238797009e-01f, 4.338710755e-02f, 1.614046544e-01f, 5.611190796e-01f, -5.600354820e-02f, 1.814351678e-01f, -2.259013988e-02f, -3.602118194e-01f, 5.036244988e-01f, 1.383644878e-03f, 2.587816715e-01f, -3.625954986e-01f, -8.447976112e-01f, 7.668817639e-01f, 1.051977351e-01f, -4.208046794e-01f, -5.961079001e-01f, -1.297512092e-02f, 4.478895664e-01f, -1.091523990e-01f, 3.471654952e-01f, -2.427243441e-01f, 3.121235669e-01f, 1.582275331e-01f, 1.036746725e-01f, -1.430574656e-01f, 2.576795220e-01f, 1.112800360e+00f, -4.057635367e-01f, 1.814369112e-01f, 5.985211134e-01f, 2.335491963e-02f, 5.969206095e-01f, -7.024157643e-01f, 5.536662340e-01f, 5.830492973e-01f, 5.811489820e-01f, 6.277713776e-01f, -8.835963607e-01f, 6.324129105e-01f, -2.785370946e-01f, -4.454142153e-01f, 6.319760084e-01f, 6.554856300e-01f, 4.563498497e-01f, -1.474018693e-01f, 1.009521931e-01f, -4.550600052e-01f, -3.633266091e-01f, 1.141698807e-01f, -3.296586573e-01f, 1.077751040e+00f, -4.404701293e-02f, 7.287171483e-01f, -3.364291787e-01f, -1.462973356e-01f, -2.775062025e-01f, -4.198565185e-01f, 4.460683763e-01f, -3.294092119e-01f, -6.800035238e-01f, -1.990550607e-01f, -3.167461976e-02f, -3.910388649e-01f, -3.002746701e-01f, -1.984798610e-01f, 1.345138550e-01f, -1.989230048e-03f, -2.089856714e-01f, 3.649924397e-01f, 1.357790530e-01f, -8.418313861e-01f, 1.021665692e+00f, -4.838303626e-01f, -9.564413875e-02f, 3.473093808e-01f, -4.832744896e-01f, 1.120031103e-01f, 2.374036610e-02f, 2.819983959e-01f, 4.316915572e-02f, 2.070673555e-01f, -1.515985876e-01f, -1.809595078e-01f, 2.525224984e-01f, -3.019212782e-01f, 5.620667934e-01f, -1.983273476e-01f, 2.796303630e-01f, -3.132233396e-02f, 5.583749413e-01f, -1.055701077e-01f, -8.436150849e-02f, 1.288757920e-01f, 2.267432511e-01f, 1.510262489e-01f, -6.649060249e-01f, 3.084073365e-01f, 1.680893824e-02f, 6.710977554e-01f, 2.262638360e-01f, -2.983039916e-01f, 7.976350188e-02f, 2.475792319e-01f, 7.812899351e-02f, 3.986099362e-01f, -2.389969826e-01f, 7.575371116e-02f, -7.306112647e-01f, 4.464986324e-01f, 8.769854903e-01f, 1.778071863e-03f, -1.731007248e-01f, -4.469755292e-01f, 3.507997096e-01f, -4.756666720e-01f, 7.478345633e-01f, 1.441415120e-02f, 1.125627458e-01f, 5.488635302e-01f, -1.648413837e-01f, -6.467751265e-01f, 4.075053036e-01f, 1.112842858e-01f, -3.729971051e-01f, 1.930302978e-01f, -1.277643591e-01f, -9.435606599e-01f, 3.226694465e-01f, 8.881536126e-02f, -5.073550940e-01f, 7.768993825e-02f, -2.817836404e-01f, -2.411098831e-04f, 2.082042545e-01f, -7.003998011e-02f, -2.663015723e-01f, 6.953999996e-01f, -1.253890097e-01f, 8.349095583e-01f, -9.536090493e-02f, -2.569578588e-01f, 7.436867952e-01f, -1.071959361e-01f, 7.953467220e-02f, -6.273739934e-01f, 2.943139374e-01f, 1.560442299e-01f, 1.811676025e-01f, 1.143034220e+00f, 3.621823192e-01f, -1.942823082e-01f, -5.327798724e-01f, -3.231183887e-01f, -9.350331873e-02f, -7.126668692e-01f, -6.963906288e-01f, -2.830216289e-01f, 1.674384177e-01f, 2.881911993e-01f, 5.736187473e-02f, -1.943316311e-01f, -3.303056955e-01f, -2.262444422e-02f, 5.689750314e-01f, -2.497513890e-01f, -3.189606965e-01f, 5.221849084e-01f, 4.860475287e-02f, 2.367595434e-01f, 2.606596649e-01f, -5.115354657e-01f, -5.450810194e-01f, 3.467196524e-01f, -2.000250220e-01f, 2.427700460e-01f, 8.433345705e-02f, -1.351813823e-01f, -3.458443796e-03f, 2.116148733e-02f, -3.661354780e-01f, -1.182392091e-01f, 1.293546557e-01f, 5.030117631e-01f, -7.079135627e-02f, 5.038131475e-01f, -3.814792633e-01f, -2.457154393e-01f, -2.550317049e-01f, -3.214766681e-01f, 1.930821091e-01f, 1.995914280e-01f, 5.059032235e-03f, 7.419539243e-02f, 2.340771109e-01f, 2.045077085e-01f, -4.812750518e-01f, 8.604451418e-01f, -8.702620864e-02f, -1.562055796e-01f, -1.120853983e-02f, 5.595445037e-01f, -4.451740682e-01f, -3.887709975e-01f, -6.484390497e-01f, 6.609292030e-01f, 4.608302414e-01f, 6.034797803e-02f, 3.447838873e-02f, 1.428265870e-01f, -1.761346608e-01f, -8.064355934e-04f, -6.149557978e-02f, -6.987139583e-01f, -9.562955797e-02f, 5.687823296e-01f, -1.578829437e-01f, 4.087994993e-02f, 2.902573645e-01f, -3.048070706e-02f, -8.741634488e-01f, 1.016061977e-01f, 3.046767414e-01f, 2.723121345e-01f, -2.133079618e-01f, -1.577941328e-01f, 1.187786981e-01f, 1.984595209e-01f, 6.815427542e-01f, 5.647167563e-01f, -8.439350724e-01f, 4.894840419e-01f, 4.250698537e-02f, -3.109969795e-01f, -1.226069853e-01f, -6.183750462e-03f, 1.135585532e-01f, -1.999792606e-01f, 5.161030889e-01f, 1.278277338e-01f, 1.090047285e-01f, -7.877058350e-03f, 8.514157496e-03f, 8.326582313e-01f, -3.493721783e-01f, 3.538313806e-01f, 3.955443799e-01f, 3.231591731e-02f, -4.863343239e-01f, -5.130389333e-01f, 7.586033940e-01f, -5.684440136e-01f, -1.275310874e+00f, -7.175181806e-02f, -2.074722946e-01f, 5.588470101e-01f, -2.358545810e-01f, -1.828710735e-01f, 3.556747139e-01f, 6.126784086e-01f, -1.593105122e-02f, 4.054310918e-02f, 3.350836039e-02f, -1.833389252e-01f, 1.137058660e-01f, 2.267107964e-01f, -2.399417758e-01f, -2.880037129e-01f, -3.249725401e-01f, -2.440801710e-01f, -2.872872949e-01f, -1.125860959e-01f, 7.944988459e-02f, -4.731499404e-02f, -3.199195862e-02f, 1.450960934e-01f, 5.612496659e-02f, 4.203877226e-02f, 1.736030728e-01f, 2.020474970e-01f, 8.480531722e-02f, 7.067104429e-02f, -3.597965539e-01f, 9.164030105e-02f, -2.558529079e-01f, 8.739145100e-02f, -3.034463823e-01f, 7.965705544e-02f, 6.523686051e-01f, 6.277809292e-02f, 3.857443482e-02f, 2.329139113e-01f, 2.153203040e-01f, 2.607856989e-01f, -8.984553628e-03f, -7.521381974e-01f, -5.981979370e-01f, 1.663150340e-01f, 1.936150193e-01f, -1.947504878e-01f, -5.286610126e-01f, 1.814712286e-01f, 4.896648694e-03f, -2.124200761e-02f, 2.624106966e-02f, 5.230848193e-01f, -3.800599873e-01f, 6.297649145e-01f, -4.888076186e-01f, 1.984599382e-01f, -3.259612620e-01f, -1.710408479e-01f, -1.647591442e-01f, 4.186597839e-02f, 4.173913300e-01f, -1.019697785e+00f, 7.181292772e-01f, 1.037804961e+00f, -6.543260813e-01f, 4.615240097e-01f, 7.174925208e-01f, 1.356864721e-01f, 5.547773242e-01f, 6.712035835e-02f, 1.632180661e-01f, -1.512190998e-01f, 3.327402174e-01f, 2.819706798e-01f, -1.631045341e-01f, 1.164242066e-02f, -3.972957730e-01f, 2.890003286e-02f, 2.957794070e-01f, -3.426029086e-01f, 1.809786819e-02f, 1.512904167e-01f, 5.214501023e-01f, -5.581251383e-01f, 1.067622527e-01f, -4.245510995e-01f, 2.265876681e-01f, 4.085211158e-01f, 2.891390920e-01f, -1.478161365e-01f, -1.112996265e-01f, -2.652022541e-01f, -5.068325400e-01f, -4.441460073e-01f, -4.175576568e-01f, 2.314866334e-01f, 1.752983481e-01f, -4.021826684e-01f, -3.645774424e-01f, 2.799159884e-01f, 9.108480066e-02f, -1.753320545e-01f, 1.221002936e+00f, 2.482684106e-01f, 3.081300259e-01f, 1.435450017e-01f, 3.095964789e-01f, -1.185621247e-01f, 2.782326639e-01f, 6.517533660e-01f, -4.364766181e-02f, 1.165927649e+00f, 4.652747214e-01f, -3.836170733e-01f, 7.684654091e-03f, -4.309372008e-01f, 2.286649793e-01f, 2.015354931e-01f, -2.314053476e-01f, -4.929427803e-02f, 1.696242243e-01f, -5.295185000e-02f, -1.824843138e-01f, 4.524582922e-01f, -3.512318432e-01f, 3.912653029e-02f, -1.640297174e-01f, -1.615477204e-01f, 6.694555283e-01f, -1.349817123e-02f, -2.199883610e-01f, -1.704235971e-01f, 8.806855083e-01f, 2.302705050e-01f, -1.644953340e-01f, -1.088773645e-02f, -1.201106682e-01f, 1.110561728e+00f, 2.488941401e-01f, 8.134126663e-02f, -2.517390549e-01f, 8.995138854e-02f, -4.165637195e-01f, -3.425060213e-01f, 4.457960427e-01f, 5.609529838e-02f, -3.561970592e-01f, -5.815926790e-01f, -2.056834996e-01f, 2.961786389e-01f, 6.535494924e-01f, 4.282159265e-03f, 3.501321673e-01f, 3.361329138e-01f, -7.800902426e-02f, 4.187954068e-01f, 2.019251734e-01f, -1.704693288e-01f, -2.242785543e-01f, 3.505138457e-01f, -3.626306653e-01f, 1.053038314e-01f, -6.337214708e-01f, -6.182094291e-02f, 3.572228849e-01f, 7.118366957e-01f, 1.933283210e-01f, -4.470280409e-01f, 5.883938670e-01f, 2.010811418e-01f, -3.176365793e-01f, 7.001751661e-01f, 4.109731019e-01f, 1.037187949e-01f, -3.997863531e-01f, 3.033302128e-01f, 3.134346306e-01f, -2.192404717e-01f, 4.554791152e-01f, 3.942337036e-01f, -2.060187012e-01f, 6.564877629e-01f, -2.344360352e-01f, 5.495243520e-02f, -3.819674551e-01f, -4.124683440e-01f, -1.987172216e-01f, -2.645934820e-01f, 1.629084349e-01f, -1.062098503e+00f, -1.051417589e+00f, -3.557175100e-01f, 2.166356295e-01f, 5.839841366e-01f, 4.467987418e-01f, -9.910812378e-01f, -6.908527762e-02f, 1.527693719e-01f, 1.741212457e-01f, -3.418900371e-01f, 1.728088707e-01f, 1.838647127e-01f, 5.202763248e-03f, 4.203396440e-01f, -3.489440714e-04f, 6.602568179e-02f, 1.880788058e-01f, 2.973546088e-02f, 1.298022866e-01f, 6.898187846e-02f, 2.534385622e-01f, -2.305261604e-02f, 5.494254231e-01f, -6.799738109e-02f, -7.675992697e-02f, -1.382723600e-01f, -1.547244098e-02f, 1.706172079e-01f, 7.980326414e-01f, -4.419974685e-01f, -4.893972576e-01f, -7.023982704e-02f, -1.863572598e-01f, -1.911710054e-01f, 3.054160178e-01f, -3.434740007e-02f, -6.073519588e-01f, 1.018084437e-01f, -2.784051001e-01f, -3.822250664e-02f, -3.800686076e-02f, 2.949705720e-01f, -2.381708026e-01f, 5.038027167e-01f, 3.518496156e-01f, -1.186015680e-01f, -7.133466005e-02f, 3.301366270e-01f, -2.187124491e-01f, 2.140429467e-01f, 1.288754493e-01f, 1.527515054e-01f, 8.465672731e-01f, 1.070073321e-01f, -2.430274487e-01f, -2.466084510e-01f, -1.932464689e-01f, 5.265219808e-01f, 1.283411533e-01f, -3.293987364e-02f, -2.095298171e-01f, -3.003751636e-01f, -2.161733210e-01f, 7.890729606e-02f, 1.066747010e-01f, 7.752259374e-01f, -5.927579999e-01f, 6.602240205e-01f, -3.269419074e-01f, -7.496044040e-02f, 2.313309908e-01f, -1.315975785e-01f, 5.353157222e-02f, 5.288195610e-01f, 3.100265563e-01f, 3.884439766e-01f, 2.018228620e-01f, -4.104561210e-01f, 6.926925182e-01f, -2.722012997e-01f, -1.995772272e-01f, -6.708456278e-01f, 4.002096653e-01f, -3.280468583e-01f, 3.181651235e-01f, 1.442393512e-01f, 6.875307113e-02f, -9.722202271e-02f, -2.948660553e-01f, 3.823202550e-01f, 7.997884601e-02f, -4.294788837e-01f, -1.335490495e-01f, 5.787974596e-01f, -8.145156316e-03f, 3.114729226e-01f, -4.757831097e-01f, 4.915422499e-01f, 2.577233911e-01f, 2.617817000e-02f, 4.870236814e-01f, -3.850233853e-01f, 3.300046548e-02f, -6.306197643e-01f, 2.550051808e-01f, 6.418523788e-01f, 1.881265193e-01f, -4.488371015e-01f, 5.624837875e-01f, 1.041824460e+00f, -1.685229093e-01f, 3.438691199e-01f, -1.720351130e-01f, -9.920878708e-02f, -1.214684173e-01f, 2.147186249e-01f, 4.563732445e-01f, -1.829195172e-01f, 9.789082408e-02f, 1.890044510e-01f, -1.279257536e-01f, -6.752400398e-01f, 1.430691928e-01f, -7.568650842e-01f, -7.442584634e-01f, 5.751326680e-02f, -1.809486270e+00f, 3.226290047e-01f, -1.165369004e-01f, -2.471930236e-01f, 2.216627449e-01f, -5.176386237e-01f, -6.187347174e-01f, -1.314509362e-01f, 6.164554358e-01f, -3.934553266e-01f, -4.667339325e-01f, 3.429127336e-01f, 6.957079172e-01f, 3.411191702e-01f, -4.733893573e-01f, -1.471234113e-01f, -9.456214309e-02f, -2.942278981e-01f, -1.891833246e-01f, 1.796746850e-01f, -7.263972759e-01f, 3.949512839e-01f, -2.919862568e-01f, -1.145923615e+00f, 1.212458685e-01f, -3.017587364e-01f, 1.535560489e-01f, -6.954411864e-01f, 1.292123646e-01f, -4.287992418e-01f, 1.085759699e-01f, 5.670408010e-01f, 7.253761888e-01f, 1.000766978e-01f, -2.632651925e-01f, 2.404872328e-01f, 5.235781148e-02f, 7.940472662e-02f, 3.598548472e-01f, 1.121964976e-01f, 8.073718101e-02f, -2.562718689e-01f, 7.179435492e-01f, 1.918512732e-01f, -2.715998292e-01f, 1.856307238e-01f, -9.653888941e-01f, 8.638740331e-02f, -7.016603649e-02f, -8.243913949e-02f, 2.029640377e-01f, -1.373045146e-01f, 3.394076824e-01f, -2.093102485e-01f, 2.621435523e-01f, 4.038569629e-01f, -4.814864099e-01f, 7.347432971e-01f, -6.897641420e-01f, -4.348520637e-01f, -2.469288651e-03f, -3.344056308e-01f, -4.759971797e-02f, -5.106037259e-01f, 4.548344612e-01f, -1.393268406e-01f, -3.910350800e-01f, 7.268573046e-01f, -3.612392843e-01f, 3.960579634e-01f, -5.592628717e-01f, 1.227504015e+00f, -4.754054844e-01f, -1.948246956e-01f, 4.319799319e-02f, -1.158361077e+00f, -2.815431356e-01f, -3.885139823e-01f, -4.645797312e-01f, -6.198956072e-02f, -1.618401706e-02f, 4.683901072e-01f, -2.318653911e-01f, -1.062176451e-01f, 5.083313584e-01f, -3.350817263e-01f, -3.504425287e-01f, -7.054697275e-01f, 3.790386915e-01f, 1.370422691e-01f, -1.016401723e-01f, 7.416763902e-02f, 4.063650966e-01f, 1.321777850e-01f, 1.429748535e-01f, -3.746670783e-01f, -1.929910667e-02f, 2.802566588e-01f, -2.795487046e-01f, 1.075689554e+00f, 6.296781301e-01f, 5.549633875e-02f, -6.084056497e-01f, -3.253056407e-01f, 7.069889456e-02f, 3.731225729e-01f, -3.065994680e-01f, -5.062752962e-02f, 1.865100116e-01f, -9.784310311e-02f, 4.146432579e-01f, 1.348985881e-01f, -4.340643063e-02f, -1.514317095e-01f, -1.906192005e-01f, 8.593370765e-02f, 3.310998380e-01f, -4.114673138e-01f, -5.695589185e-01f, -9.106197208e-02f, 3.528670669e-01f, -1.940005422e-01f, -1.622882485e-01f, 2.728647590e-01f, 5.555609614e-02f, 4.827702045e-01f, 1.851541251e-01f, -3.817456961e-01f, 2.444307953e-01f, -2.649349272e-01f, -7.879192233e-01f, 9.734346718e-02f, 2.717843056e-01f, 4.477367699e-01f, 5.750100613e-01f, -2.631579153e-02f, 6.176435351e-01f, 1.371527314e-01f, 1.602628082e-02f, 2.560799122e-01f, -6.505903006e-01f, 5.661258101e-01f, -1.261906028e-01f, -1.514455527e-01f, 4.885834157e-01f, -6.145959496e-01f, -1.039708033e-01f, 5.839853287e-01f, 5.274040699e-01f, 5.333101749e-02f, 6.570973396e-01f, 8.465226889e-01f, -2.808961272e-02f, 3.948500752e-01f, 5.534883738e-01f, -5.836389661e-01f, -7.264093161e-01f, 1.522903591e-01f, 2.289070785e-01f, -8.112956285e-01f, -1.192001849e-01f, 8.447875828e-02f, -5.409269333e-01f, 3.080155849e-01f, -1.686104089e-01f, 1.942729205e-01f, -1.125869062e-02f, -2.115899026e-01f, -3.496197164e-01f, 3.076674342e-01f, 3.897174001e-01f, -3.570768610e-02f, 3.145218194e-01f, -1.366007701e-02f, 1.433149874e-01f, 5.192578435e-01f, 1.375269424e-02f, -3.181542158e-01f, 1.525136083e-01f, -4.200356901e-01f, 8.645052463e-02f, -4.981862605e-01f, 2.924638391e-01f, 2.587569356e-01f, 8.731555939e-02f, 2.109984756e-01f, 1.925761402e-01f, 1.668511145e-02f, -6.470111758e-02f, 1.567552052e-02f, -2.392201722e-01f, 2.281882018e-01f, -4.135569632e-01f, 6.487791240e-02f, 9.665552061e-04f, -7.248456124e-03f, -7.367181182e-01f, 1.631501019e-01f, -1.597415358e-01f, 3.320771828e-02f, 3.505784646e-02f, 4.356706142e-02f, 1.550082266e-01f, -2.009566426e-01f, 8.484608531e-01f, 2.919335067e-01f, -2.825519145e-01f, -5.455773473e-01f, -7.996056974e-02f, 6.894180924e-02f, -1.662746072e-01f, -2.845678031e-01f, -4.629113376e-01f, 1.451234818e-01f, 2.863863949e-03f, 7.749242783e-01f, 7.380656004e-01f, 1.484942436e-01f, 3.043521047e-01f, 3.823045492e-01f, -1.684206426e-01f, 1.223922968e-01f, 7.786812186e-01f, -2.631259523e-02f, 3.575244248e-01f, -2.020820379e-01f, 9.663355350e-02f, 4.479373097e-01f, 4.019679725e-01f, -8.297235370e-01f, -4.998128414e-01f, -1.817826778e-01f, 5.145887733e-01f, -2.038620561e-01f, 1.156560540e+00f, 4.418452382e-01f, -9.717032909e-01f, -5.589166880e-01f, -1.625440866e-01f, 9.822690487e-02f, 2.780516744e-01f, -2.205842286e-01f, 1.338984072e-01f, 3.996032178e-01f, -1.526138783e-01f, 6.957775354e-02f, 7.348329425e-01f, 6.471468210e-01f, 1.189664155e-01f, 5.972720981e-01f, -2.698865533e-01f, -5.718215108e-01f, 1.128911078e-01f, -2.691579461e-01f, 4.259072840e-01f, -1.036177158e+00f, 1.628823429e-01f, -5.841335058e-01f, -4.946538806e-01f, -2.509106398e-01f, 1.033633482e-02f, 4.942705855e-02f, -4.728628695e-02f, -3.540093824e-02f, -4.125093296e-02f, -2.825611532e-01f, 4.823730886e-02f, -4.955039918e-01f, -3.124776781e-01f, 1.895500720e-01f, -3.281999528e-01f, -7.628621534e-03f, -1.370518059e-01f, -4.804820418e-01f, 1.051355675e-01f, -1.999874366e-03f, 1.303881556e-01f, -3.870099187e-01f, -1.814666837e-01f, -4.915176630e-01f, -1.712137461e-01f, 5.209437609e-01f, -1.796304435e-02f, 1.581431478e-01f, 4.218361974e-01f, -6.339841485e-01f, 1.111739799e-01f, 3.253747225e-01f, -1.028171778e+00f, 3.376324773e-01f, 4.788953662e-01f, -4.778901637e-01f, -3.260812461e-01f, 3.401367068e-01f, 4.570001364e-01f, 4.658836424e-01f, -2.319946587e-01f, 2.777526081e-01f, -1.261475831e-01f, 2.736408710e-01f, 2.581312507e-02f, 5.832651258e-01f, -9.839913249e-01f, -2.036560178e-01f, -1.383043528e-01f, -1.659092009e-01f, -2.023612261e-01f, 7.803698182e-01f, -6.015937924e-01f, 1.775977910e-01f, -1.497166753e-01f, 2.440228164e-01f, 2.115580998e-02f, 2.089061961e-02f, -2.761152983e-01f, 2.057449818e-01f, 7.322973609e-01f, -8.913486451e-02f, 7.119560838e-01f, 4.967505336e-01f, 2.896267772e-01f, -2.900007181e-02f, -3.050693274e-01f, -2.172878832e-01f, -5.167059302e-01f, 3.467757702e-01f, 6.074113846e-01f, 2.174981982e-01f, -5.636022687e-01f, 2.925693989e-01f, -1.710684597e-01f, 2.085347772e-01f, -8.545871973e-01f, 7.018055320e-01f, -3.925047815e-01f, -5.630815029e-01f, 2.159471959e-01f, 5.838364363e-01f, 2.114144415e-01f, 6.045932770e-01f, 5.891452432e-01f, 2.501780353e-02f, 7.815384120e-02f, 3.685843050e-01f, -4.217665493e-01f, 1.194940925e+00f, -8.811963797e-01f, 7.925938964e-01f, 1.513432711e-01f, -6.583024263e-01f, 7.804708928e-02f, -3.095012009e-01f, 2.497762740e-01f, -9.134260416e-01f, -1.127740517e-01f, 1.104885116e-01f, 5.802310109e-01f, 1.795233339e-01f, 2.597855330e-01f, 1.185341273e-02f, -4.596492052e-01f, 2.778289616e-01f, -3.272730857e-02f, -1.137196124e-01f, -4.564722180e-01f, 2.627847195e-01f, -5.602623522e-02f, -7.074391842e-01f, -4.231035337e-02f, -4.309965372e-01f, -4.093431234e-01f, -3.802502155e-01f, 2.086860836e-01f, 2.563877702e-01f, 2.219538540e-01f, 1.003099531e-01f, -5.555908382e-02f, 1.274867207e-01f, 3.920808733e-01f, 1.927514821e-01f, 6.675066948e-01f, -2.989082932e-01f, 3.778549433e-01f, -3.924145401e-01f, -4.039063156e-01f, -8.520047367e-02f, -1.359736621e-01f, -3.681339920e-01f, -3.786769807e-01f, -4.614329040e-01f, -4.542410672e-01f, 1.219006702e-01f, -2.874194980e-01f, 8.080603480e-01f, -1.928196698e-01f, -4.273051918e-01f, 1.944312640e-02f, 6.662210822e-02f, 3.615912423e-02f, 1.114866883e-01f, 2.879969776e-01f, -2.349848300e-01f, -1.744223684e-01f, -2.606231868e-01f, -3.861820996e-01f, -8.217994869e-02f, -2.215159088e-01f, 2.266247422e-01f, 2.888077125e-02f, -2.290781401e-02f, 2.485816479e-01f, 8.154252544e-03f, -1.485994905e-01f, 1.690867692e-01f, 4.853129014e-02f, -1.157906353e-01f, 3.463990986e-01f, 5.049855113e-01f, 7.581379265e-03f, -6.150875688e-01f, 1.736899167e-01f, -4.975779951e-01f, 8.306909204e-01f, -6.314429920e-03f, -2.882109582e-02f, 4.561433792e-01f, 2.611285150e-01f, 8.233321309e-01f, -7.402329892e-02f, 2.033486664e-01f, -3.708319664e-01f, 3.022325933e-01f, -2.469990402e-01f, 2.045505494e-01f, -2.043252587e-01f, 5.392613411e-01f, -5.531289428e-02f, -1.331998557e-01f, -4.378909469e-01f, 8.493620157e-02f, 3.335599005e-01f, 4.202834070e-01f, 6.626836658e-01f, 6.683636457e-02f, 2.187995762e-01f, -1.607706845e-01f, -6.699193120e-01f, 2.932801656e-02f, 7.708792090e-01f, -1.919734627e-01f, -3.502879441e-01f, 2.896282673e-01f, 1.993425041e-01f, 3.690854833e-02f, -6.439217925e-01f, -1.428907514e-01f, 3.145861626e-01f, -4.741636217e-01f, -1.321935207e-01f, -1.664828211e-01f, 4.387471378e-01f, -2.788463235e-01f, 2.836166136e-02f, 5.290438533e-01f, -1.423239708e-01f, 5.960706472e-01f, -3.642974794e-01f, -5.257666484e-02f, -1.716735959e-01f, -1.580743194e-01f, 4.780580103e-02f, 1.099686027e-01f, 2.353760600e-01f, 2.654815614e-01f, -2.409218550e-01f, 5.398145691e-02f, 2.826647460e-01f, 1.146294400e-01f, -1.689935625e-01f, 1.060808152e-01f, -3.035374284e-01f, 2.404572070e-01f, 5.128623173e-02f, -8.850704134e-02f, -1.132467866e+00f, -2.867051661e-01f, -3.223654032e-01f, -6.390318871e-01f, -4.157691300e-01f, 7.053465247e-01f, -1.198783517e-01f, -5.199179053e-02f, 3.913800120e-01f, 6.153051853e-01f, -2.835172415e-01f, -2.318738848e-01f, 3.723279238e-01f, 1.268826872e-01f, -6.894011796e-02f, 2.472063452e-01f, -1.814283133e-01f, -1.975037009e-01f, -4.424806833e-01f, -2.683761120e-01f, -4.785426557e-01f, 3.106002808e-01f, -2.783697248e-01f, -5.177953243e-01f, -1.084150672e+00f, 2.925660312e-01f, 1.416695416e-01f, 3.641325235e-02f, 3.030103445e-01f, -4.147996008e-01f, -8.882206082e-01f, 2.103793174e-01f, 4.217440635e-02f, -3.885162771e-01f, -7.289311290e-01f, 1.020777225e-01f, 1.637950540e-02f, -3.591919243e-01f, 3.817236722e-01f, 2.581364810e-01f, -3.516357243e-01f, -6.324008107e-01f, 3.076745868e-01f, 2.451080130e-03f, 1.249593403e-02f, -1.534724087e-01f, 3.106258214e-01f, 7.333313227e-01f, -1.751969904e-01f, -2.105020173e-02f, -2.302167267e-01f, 3.746642768e-01f, 5.396112800e-01f, 4.075912833e-01f, 1.972658932e-02f, 1.829259545e-01f, 2.830974460e-01f, -8.170392513e-01f, -8.416054770e-03f, -8.865538239e-01f, 7.180975080e-01f, -4.522453249e-01f, -8.202299476e-01f, 3.438971341e-01f, -1.564250588e-01f, 5.215759277e-01f, 6.063798070e-01f, 4.580328763e-01f, 2.632095218e-01f, -1.360375732e-01f, 2.032323480e-01f, 6.091036648e-02f, 4.747367203e-01f, 1.713294238e-01f, 1.019867957e-01f, 3.354694545e-01f, 4.110751748e-01f, -1.407414675e-01f, 1.738548279e-01f, 8.111307770e-02f, 1.265185624e-01f, 3.178753853e-01f, -5.025072023e-02f, -6.295235753e-01f, 3.988575935e-02f, 4.282624424e-01f, -2.292976528e-01f, -7.385926694e-02f, 3.862783015e-01f, 7.531937957e-02f, 5.390371680e-01f, -9.855762124e-02f, -8.192564547e-02f, 6.919220090e-02f, 1.300224196e-02f, -2.512395084e-01f, 1.027370170e-01f, 4.508329555e-03f, -2.913714647e-01f, -1.974692196e-01f, 1.056438088e-01f, 3.548606932e-01f, 4.743069708e-01f, -1.216349453e-01f, 7.768929601e-01f, 2.437749207e-01f, 2.030180693e-01f, -7.864098251e-02f, 2.358262241e-01f, -6.031191945e-01f, -5.512468219e-01f, 1.738869399e-01f, 5.474606156e-02f, 9.025301039e-02f, 1.181821823e-01f, 8.501957059e-01f, -5.368753150e-02f, 6.678865552e-01f, -2.439579740e-02f, -2.824801803e-01f, 2.019663453e-01f, 1.934259981e-01f, 2.429919243e-01f, -1.494830847e-01f, 2.122975886e-01f, -1.573349684e-01f, -1.906419396e-01f, -2.204334140e-01f, -2.663060725e-01f, -1.172708720e-01f, -1.516270190e-01f, 1.515593976e-01f, 1.205381900e-01f, 4.762200266e-02f, 7.479797602e-01f, 6.003181338e-01f, -1.533035040e-01f, -6.259809434e-02f, 8.935815841e-02f, 2.710405290e-01f, 3.728798330e-01f, 8.071672171e-02f, 3.710349798e-01f, 5.386645198e-01f, 2.185680568e-01f, 4.987236857e-02f, 3.602269292e-01f, 4.946541786e-02f, -2.645683289e-01f, 2.804246545e-01f, -2.907282114e-01f, 5.498268008e-01f, -4.311912656e-01f, -6.581117511e-01f, -4.455952048e-01f, -1.806025058e-01f, 7.429743409e-01f, -2.531953752e-01f, -1.125903726e+00f, 2.980040908e-01f, -3.763278946e-02f, 5.200808644e-01f, -1.408512741e-01f, 7.824645191e-02f, 3.638985753e-02f, 2.444157749e-01f, -2.435740829e-01f, 8.029791713e-01f, -4.246906042e-01f, -1.320789754e-02f, 6.027857214e-02f, -1.155447587e-01f, -3.475662172e-01f, -5.066857487e-02f, -2.495311797e-01f, 3.007462621e-01f, -8.567881584e-02f, -9.409273416e-02f, 1.166926697e-01f, 1.748174727e-01f, -2.047202438e-01f, 1.120104268e-01f, -9.120482951e-02f, -1.104791984e-01f, -1.568233222e-01f, -8.009634614e-01f, -2.355373800e-01f, 5.867618322e-02f, 1.622217447e-01f, 7.730583102e-02f, -1.925875247e-01f, -6.557612121e-02f, 8.992899656e-01f, -1.332676262e-01f, 9.452767968e-01f, -9.886717051e-02f, -3.671655953e-01f, 6.306413561e-02f, 4.997192025e-01f, -4.135138988e-01f, 5.528379083e-01f, 2.278669477e-01f, -1.414417922e-01f, -6.642171741e-02f, 1.313087065e-03f, -4.778864980e-01f, 1.353284270e-01f, 1.479531825e-01f, -2.991629541e-01f, 1.161980629e-02f, -8.420769870e-02f, 2.946191728e-01f, 3.560822904e-01f, 8.546565771e-01f, 6.353164911e-01f, -7.134160995e-01f, -3.261478543e-01f, 4.455588460e-01f, -2.902946770e-01f, -2.965173423e-01f, 1.813855171e-01f, -1.671774238e-01f, 3.694646433e-02f, 6.477389336e-01f, 2.944981493e-02f, -1.764646322e-01f, 8.778581023e-01f, -2.695070505e-01f, -1.390418410e-01f, 2.335692495e-01f, -1.194756404e-01f, 1.498786956e-01f, -3.213408887e-01f, -1.036566868e-01f, 1.238132641e-01f, 1.744592637e-01f, 2.290717959e-01f, 1.631968468e-01f, -4.794099033e-01f, 8.077313900e-01f, -1.107212603e-01f, -7.274714112e-02f, 1.498114765e-01f, -2.288379520e-02f, -2.369620651e-01f, -1.801783442e-01f, 1.274293363e-01f, 2.072775513e-01f, -1.062274575e-01f, -1.391250044e-01f, -3.761277497e-01f, -2.587191761e-01f, 5.011250973e-01f, 9.659371525e-02f, -5.870623589e-01f, 6.070254445e-01f, -5.495204329e-01f, -3.818918169e-01f, 3.287489414e-01f, 3.018946946e-01f, -7.262332439e-01f, -3.573969901e-01f, -2.388650328e-01f, -4.843771458e-01f, 5.101723671e-01f, -2.415059060e-01f, 4.582703114e-03f, -3.646078706e-01f, -4.242404401e-01f, 3.422110975e-01f, 1.974884421e-02f, -3.792148232e-01f, 5.400700569e-01f, 6.484295428e-02f, -2.626303956e-02f, -1.063625813e-01f, 3.233286142e-01f, 3.742260635e-01f, 2.542681098e-01f, 6.331703067e-02f, 4.600758851e-01f, -5.223622322e-01f, 2.258824557e-01f, 3.875639439e-01f, 7.472527027e-01f, -2.208785117e-01f, 9.622235596e-02f, 3.701045215e-01f, -5.783019662e-01f, -2.634591162e-01f, -3.375684321e-01f, 9.369515628e-02f, -4.461518824e-01f, -2.010659873e-01f, 6.613079309e-01f, 4.623731971e-01f, -4.137961194e-02f, 2.324128291e-03f, -6.753986478e-01f, 6.569206119e-01f, -4.777067006e-01f, -2.066981196e-01f, -2.536777556e-01f, 4.843237102e-01f, 6.591330171e-01f, 1.480297297e-01f, -6.954103112e-01f, 4.603100717e-01f, 1.142379567e-01f, -1.215524785e-02f, -1.236688495e-01f, -2.685247660e-01f, -5.045534372e-01f, 7.820498347e-01f, -9.106384516e-01f, -1.556401134e+00f, 3.450938165e-01f, 6.681678444e-02f, 3.669687212e-01f, -4.486250505e-02f, -3.823331594e-01f, -3.026344115e-03f, -8.969527483e-02f, -3.440128267e-01f, -1.505519301e-01f, 7.087109238e-02f, 7.467662543e-02f, 3.603132069e-01f, 2.884868979e-01f, -7.261896729e-01f, 6.501805037e-02f, -3.116189539e-01f, -9.741002321e-01f, 7.207403183e-01f, 5.931787193e-02f, -3.484364450e-01f, 6.437035799e-01f, -2.978546023e-01f, -1.300711185e-01f, -2.725726068e-01f, -5.809353590e-01f, -6.213085055e-01f, 1.136666909e-01f, 7.334051132e-01f, -4.780351222e-01f, 3.708851635e-01f, -2.451578826e-01f, 1.928721070e-01f, 7.567913532e-01f, -1.695118070e+00f, -1.164915800e+00f, -1.118036270e+00f, 8.112286329e-01f, -1.356982142e-01f, -4.670504630e-01f, -1.873415262e-01f, -2.400858849e-01f, -3.624442816e-01f, 3.082795739e-01f, 2.823042274e-01f, 1.503207982e-01f, 6.018496156e-01f, 5.241629109e-02f, 9.418101609e-02f, -1.805850863e-01f, 4.548553824e-01f, -9.372300506e-01f, -8.114241362e-01f, 2.385618091e-01f, 5.094234645e-02f, 1.628542505e-02f, -3.201941028e-03f, -7.081599534e-02f, 3.330437243e-01f, -5.378562212e-01f, 4.143041074e-01f, -1.586478949e-01f, -6.090723351e-02f, 2.116490304e-01f, 2.500710487e-01f, -7.395235449e-02f, -3.697663173e-02f, -1.559016556e-01f, -3.594273627e-01f, 9.685015678e-02f, 9.707164764e-02f, 2.620213032e-01f, 1.366505027e-01f, -3.104323149e-01f, 4.542645216e-01f, -2.220480442e-01f, 1.779038310e-01f, 5.642922521e-01f, -1.892047375e-01f, -2.739967545e-03f, 2.770303190e-01f, 4.744337201e-01f, -4.481586516e-01f, -6.968157887e-01f, -8.744987100e-02f, 7.971414924e-01f, 8.857452124e-02f, 2.634232640e-01f, -4.905970693e-01f, -6.147075891e-01f, 9.775445610e-02f, -4.127918184e-01f, -3.188728988e-01f, -1.364542395e-01f, 3.296904564e-01f, 1.843907833e-01f, 7.003284693e-01f, 4.748985767e-01f, -5.353984237e-01f, -5.622483790e-02f, 9.274036288e-01f, -4.808638096e-01f, 4.214529097e-01f, 4.975673258e-01f, -3.572970033e-01f, 3.601483405e-01f, 1.955889612e-01f, 1.084741116e+00f, 7.074650526e-01f, 4.501151741e-01f, 1.779117733e-01f, -1.948197633e-01f, -4.729642272e-01f, -1.792224497e-01f, 9.804167747e-01f, -1.914184541e-01f, 1.447856873e-01f, 1.415766329e-01f, -3.778040409e-01f, 3.064914048e-01f, 6.989260316e-01f, -1.248858348e-01f, 4.025084153e-02f, -2.033765316e-01f, 3.271876276e-01f, 1.947913617e-01f, 5.775895715e-02f, -2.093753368e-01f, 3.787423298e-02f, 2.749059498e-01f, -4.350706935e-01f, -9.774507284e-01f, 2.433259487e-01f, 2.454508245e-01f, 2.587726116e-01f, 6.045760587e-02f, 3.880663812e-01f, 5.952051282e-01f, -3.916805387e-01f, -1.074664742e-01f, -6.890856028e-01f, -5.143962055e-02f, -1.711928695e-01f, 3.293008804e-01f, -1.219331846e-01f, 4.891619980e-01f, 2.615825832e-01f, -1.935603172e-01f, 5.351984501e-01f, 1.165273413e-01f, 6.174913645e-01f, -4.113502502e-01f, -4.105243385e-01f, -1.377118677e-01f, 1.470995843e-01f, -1.142503694e-01f, -8.904800564e-02f, 2.610022724e-01f, 2.792403102e-01f, -2.189248614e-02f, -8.382257819e-02f, -5.487146378e-01f, -2.274957299e-01f, 2.750605047e-01f, -3.294502571e-02f, 1.430550665e-01f, -6.062711403e-02f, -9.681414813e-02f, -2.070721388e-01f, 8.798561990e-02f, 1.412361711e-01f, -3.491336703e-01f, -5.241710544e-01f, 2.390840054e-01f, 8.907092363e-02f, -4.562139139e-02f, -2.275185846e-02f, 2.241571844e-01f, -9.325221181e-02f, -7.507036328e-01f, -3.537777364e-01f, -6.042952463e-02f, -1.810819656e-01f, -3.200967908e-01f, 2.848717272e-01f, -7.969945669e-02f, -1.073481292e-01f, -4.567376673e-01f, -3.490435481e-01f, -1.087911725e-01f, 6.545699835e-01f, -2.122408450e-01f, 1.712286025e-01f, 3.523362875e-01f, -4.018683732e-01f, -6.102429628e-01f, 3.432287276e-01f, -1.447670907e-02f, -7.040472031e-01f, 8.450832218e-02f, 2.321429253e-01f, 6.067958474e-01f, -1.093411073e-01f, 1.074961066e+00f, 6.727774143e-01f, -7.810957730e-02f, 3.867388666e-01f, 5.823330954e-02f, -1.086512133e-01f, 2.611480355e-01f, 5.011878610e-01f, -3.203337491e-01f, -3.716393411e-01f, -4.912624881e-02f, 4.916579127e-01f, 4.395628273e-01f, 2.127862275e-01f, -2.552090585e-01f, -6.611213088e-02f, -1.694486588e-01f, 4.325908720e-01f, 3.247941136e-01f, 8.361937851e-02f, 9.109389186e-01f, -2.337502539e-01f, -4.142189771e-02f, -8.599623442e-01f, 6.589850038e-02f, 3.350476325e-01f, 7.054090500e-01f, -7.476877570e-01f, 1.688694805e-01f, -2.348101139e-01f, -6.509186029e-01f, -3.545564413e-01f, -2.841408253e-01f, -1.411350444e-02f, 4.460721314e-01f, -7.673624754e-01f, 8.016244322e-02f, -1.485134006e+00f, -2.131602615e-01f, 1.136986688e-01f, -2.990002334e-01f, -4.495707527e-02f, 4.084933102e-01f, -9.210987389e-02f, -3.536030650e-01f, -2.140080482e-01f, -1.236547232e-01f, -3.225848079e-01f, 1.322311312e-01f, -6.787695885e-01f, 3.252300248e-02f, 2.535592206e-02f, 5.316765308e-01f, -1.157538056e+00f, -3.567033112e-01f, 1.260335445e-01f, -1.169677358e-02f, 2.135900110e-01f, 1.526157185e-02f, 4.500832260e-01f, 1.082246602e-01f, 1.432714820e+00f, -2.687734365e-01f, 5.368867517e-02f, -7.131319046e-01f, -2.567340732e-01f, 5.751845613e-02f, -4.262233898e-02f, -4.578318819e-02f, -1.427385211e-01f, 7.777045667e-02f, -4.766937196e-01f, -3.668941557e-01f, 1.692224741e-01f, 2.404061407e-01f, -3.232044578e-01f, 1.315311342e-01f, 6.349227577e-02f, 2.588139176e-01f, 1.740395874e-01f, 4.958091974e-01f, -9.541573375e-02f, 8.788249642e-02f, 1.551185548e-01f, 2.744591236e-01f, 2.127911448e-01f, 6.835423410e-02f, 1.052746177e-01f, 1.852512956e-01f, -3.169323504e-02f, -5.718288422e-01f, 3.603383899e-01f, -6.663910300e-02f, -1.098475326e-02f, 3.496645689e-01f, 2.751394808e-01f, 2.417505160e-02f, 5.842774510e-01f, 2.227470577e-01f, 1.325179338e-01f, 4.107709825e-01f, -3.811196089e-01f, 2.637152560e-02f, -1.498452295e-02f, 1.841590106e-01f, -2.150110155e-02f, -8.685087562e-01f, 4.188981354e-01f, -1.385586411e-01f, -3.739176989e-01f, 1.681142114e-02f, -2.009221911e-01f, -4.602287710e-02f, 1.491311491e-01f, 2.743900418e-01f, 7.995519787e-02f, 2.078155875e-01f, -5.312953517e-02f, -2.544289827e-01f, -1.320159733e-01f, -2.042265385e-01f, 7.068283111e-02f, 4.162631929e-01f, 1.899724826e-02f, -6.169557571e-01f, 2.214876413e-01f, -1.070292201e-02f, -9.345436692e-01f, -1.264829189e-01f, 1.178396791e-01f, 1.854138523e-01f, -6.251156330e-01f, 9.848277271e-02f, -4.714177251e-01f, -4.400617182e-01f, 2.130584568e-01f, -6.287256479e-01f, 7.030025721e-01f, -4.786975384e-01f, 6.993665695e-01f, 2.308052266e-03f, 2.028758824e-01f, 8.652713299e-01f, -6.515101194e-01f, -3.237052858e-01f, 1.094956398e+00f, 1.271275282e-01f, -8.977326006e-02f, 5.549582839e-01f, 5.061085820e-01f, 2.281101644e-01f, -5.527805090e-01f, 1.085861549e-01f, 5.628354549e-01f, 2.406381071e-01f, -1.323050559e-01f, 3.221334890e-02f, 5.120835304e-01f, 5.730062723e-01f, 1.149282455e-01f, -3.665025830e-01f, 8.745041490e-01f, -3.178321123e-01f, -6.124906540e-01f, 3.731027544e-01f, 4.773765504e-01f, -3.740707338e-01f, -1.035323143e-01f, -4.036671817e-01f, 5.268063545e-01f, 2.615874708e-01f, -1.583589315e-01f, -1.476734281e-01f, 2.192131132e-01f, 7.854799032e-01f, -2.606587410e-01f, -2.165865898e-01f, -3.703251183e-01f, -3.190363050e-01f, -1.307684928e-01f, 2.556274533e-01f, -7.535713315e-01f, 5.373038650e-01f, 3.555729389e-01f, -7.258602977e-01f, 6.801181287e-02f, 2.109973580e-01f, -6.623669714e-02f, 7.736011147e-01f, 2.166617066e-01f, 8.363569975e-01f, 1.278394461e+00f, -3.652575016e-01f, 3.220815957e-01f, -1.958894543e-02f, -4.236720204e-01f, -3.854976892e-01f, -7.951716781e-01f, -2.481099516e-01f, -1.327347606e-01f, 2.478838861e-01f, -2.672346532e-01f, -5.099552870e-01f, -2.077215612e-01f, 6.535885930e-01f, 2.919346988e-01f, -5.775985718e-01f, -6.017227173e-01f, 5.479016304e-01f, -1.511971503e-01f, 7.854506969e-01f, -3.725451529e-01f, -9.898755550e-01f, -9.923172742e-02f, -7.379381061e-01f, 9.746493399e-02f, -4.540247917e-01f, -4.307769835e-01f, 6.421613097e-01f, 2.605536394e-02f, -3.960845768e-01f, -5.682857633e-01f, -5.209964514e-01f, -9.747588634e-01f, -8.022698760e-01f, -7.932772487e-02f, 1.959347129e-01f, -3.800590634e-01f, 2.688114345e-01f, 8.564991951e-01f, -2.707101703e-01f, -3.564622402e-01f, -8.869382739e-01f, 3.655521944e-02f, -1.983088255e-01f, -3.260178864e-01f, -9.712352604e-02f, 1.474968530e-02f, -2.296972424e-01f, 1.679895371e-01f, -7.952044159e-02f, -2.182039768e-01f, 1.111894101e-01f, 2.649793029e-01f, -1.759553403e-01f, 2.762352824e-01f, -5.577334762e-01f, 7.365988195e-02f, -2.598822117e-01f, -3.054063022e-02f, 1.704962701e-01f, -5.602729693e-02f, 3.554248437e-02f, -7.078789920e-02f, 8.590463400e-01f, 2.444242388e-01f, -1.003162503e+00f, 8.295167685e-01f, 8.255031109e-01f, 5.984395146e-01f, -4.074960947e-01f, 1.827025265e-01f, -1.725137830e-01f, -2.185388952e-01f, -6.536828279e-01f, 3.362961709e-01f, -8.930914849e-02f, -4.604270682e-03f, -6.515917778e-01f, -4.210007489e-01f, 2.028149515e-01f, -2.610296309e-01f, -1.375147142e-02f, -6.980656087e-02f, 4.993924499e-02f, -8.350821137e-01f, 2.161214352e-01f, -2.949318886e-01f, 3.666946292e-01f, 5.368981957e-01f, -2.638036907e-01f, 5.836099386e-01f, -9.678557515e-02f, 5.388364196e-02f, 1.754289493e-02f, -3.696427345e-01f, -8.777309060e-01f, 1.032392979e-01f, 5.975606665e-02f, -1.032107770e-01f, 7.888958454e-01f, 8.375629038e-02f, 8.096300066e-03f, -3.615681827e-01f, -6.190776825e-02f, 2.125590444e-01f, -1.397391409e-01f, -2.082999200e-01f, 5.936627463e-02f, 2.090055794e-01f, 6.489649415e-02f, 8.076692820e-01f, 1.446779966e-01f, 4.963288903e-01f, -1.074338183e-01f, 2.417673320e-01f, 8.740175962e-01f, -9.112703055e-02f, -5.757407546e-01f, -1.492415518e-01f, 4.338739067e-02f, -3.548384309e-01f, -2.990936935e-01f, -2.941816747e-01f },
};

static const float qkv_bias[1][96] = {
  { -3.920659050e-02f, -4.716217220e-01f, 7.698030025e-02f, 2.004864961e-01f, -1.547636390e-01f, -1.200624462e-02f, 2.301825285e-01f, -6.031757966e-02f, -1.249796301e-01f, -1.331170648e-01f, 2.237462997e-01f, -2.277337611e-01f, 2.541266680e-01f, -4.406329244e-02f, 2.662639618e-01f, -4.954621494e-01f, -7.490801811e-02f, 9.974390268e-01f, -5.620661378e-02f, 1.605889052e-01f, 6.313041449e-01f, -5.246024132e-01f, -1.709707528e-01f, -9.345106781e-02f, -3.141036630e-01f, -2.581495047e-01f, 1.788598485e-02f, 2.802210487e-02f, -1.138939500e+00f, 1.190568209e-01f, 8.959171921e-02f, -2.224051058e-01f, -4.156321287e-01f, 5.499295145e-02f, 2.814607322e-01f, 2.591164112e-01f, -4.850164801e-02f, -1.631892622e-01f, -4.109371305e-01f, -2.713922858e-01f, -2.157893032e-01f, -2.349978834e-01f, -7.945875823e-02f, -4.021489620e-01f, 4.111212790e-01f, -4.819670320e-02f, 2.127330899e-01f, -1.771579683e-01f, -1.355648041e-01f, 2.705151737e-01f, -7.479585707e-02f, 1.671817452e-01f, -3.298063874e-01f, 3.548561931e-01f, -1.445848942e-01f, 1.827186346e-01f, -5.080027580e-01f, -1.561441123e-01f, -6.175155938e-02f, -4.108187854e-01f, 3.320857882e-01f, -4.715225101e-01f, 4.623282850e-01f, 6.999826431e-02f, -1.951053888e-01f, 2.624408901e-01f, -1.081810221e-01f, -3.442147076e-01f, -3.150878847e-01f, 1.687503308e-01f, 2.814278901e-01f, -2.258370966e-01f, 1.474417597e-01f, -2.369788438e-01f, -1.240553781e-01f, -1.701810211e-01f, -3.071728349e-01f, -1.674238145e-01f, 3.757087588e-01f, -2.721749246e-01f, -2.592946589e-01f, 4.382623136e-01f, -2.571740448e-01f, -7.014141232e-02f, -3.985843360e-01f, -2.928736806e-01f, 1.824073493e-01f, -1.026379988e-01f, -2.996241450e-01f, 1.776384413e-01f, 3.076208830e-01f, 2.122443765e-01f, -1.370035391e-02f, 1.016784459e-01f, -1.181850731e-01f, -1.042213216e-01f },
};

static const float outproj_weight[1][1024] = {
